~o
<STREAMINFO> 1 39
<VECSIZE> 39<NULLD><MFCC_E_D_A_Z><DIAGC>
~s "silst"
<NUMMIXES> 15
<MIXTURE> 1 1.009350e-01
<MEAN> 39
 -3.055939e+00 -7.253496e-01 3.603107e+00 3.695673e+00 3.486584e+00 5.603439e+00 3.151937e+00 4.423156e+00 3.388576e+00 3.508228e+00 2.848482e+00 9.741524e-01 1.851825e-01 -2.607765e+00 -1.425683e+00 -1.241318e+00 6.820204e-01 9.047620e-01 2.048345e+00 2.649814e+00 3.132491e+00 2.214962e+00 1.997814e+00 9.826304e-01 3.298365e-01 -1.103333e-01 4.742223e-01 5.905275e-01 -6.385823e-02 -1.142310e-01 -2.486454e-01 -4.804695e-01 -3.845930e-01 -3.342695e-01 -3.525794e-01 -4.113226e-01 -2.194707e-01 -1.580767e-01 4.459302e-02
<VARIANCE> 39
 1.569060e+01 3.777274e+01 1.385460e+01 2.834417e+01 2.207632e+01 2.846085e+01 2.959381e+01 3.323090e+01 3.913728e+01 3.098387e+01 3.004482e+01 2.549273e+01 2.401363e-02 1.471372e+00 1.934657e+00 1.652848e+00 2.549617e+00 2.504260e+00 3.111303e+00 2.987536e+00 2.821453e+00 2.902316e+00 2.697372e+00 2.895394e+00 3.288296e+00 2.243150e-03 2.698938e-01 3.908333e-01 2.988651e-01 4.314848e-01 3.526374e-01 4.592974e-01 5.095176e-01 6.346875e-01 6.712102e-01 6.733288e-01 4.877729e-01 4.699799e-01 4.674658e-04
<GCONST> 9.508002e+01
<MIXTURE> 2 2.637550e-02
<MEAN> 39
 1.321341e+00 2.875387e-01 -9.166802e-01 -3.359919e+00 -1.021139e+00 3.960375e+00 8.740676e+00 9.908595e+00 9.323738e+00 6.769883e+00 -4.376484e-03 -1.979322e+00 5.037757e-01 4.766448e-01 3.656302e-01 -2.218031e+00 -1.521310e+00 -1.991850e+00 -2.129427e+00 -7.617617e-01 -7.514344e-01 7.723905e-01 1.698851e+00 1.734977e+00 1.759888e+00 1.307022e-01 -3.701361e-01 -3.824941e-02 4.976454e-01 4.890560e-01 3.688726e-01 -2.228623e-02 -7.761441e-01 -8.513628e-01 -7.496615e-01 -4.016813e-01 2.072680e-01 5.047149e-01 -1.029514e-02
<VARIANCE> 39
 2.511377e+01 1.091105e+02 5.102517e+01 4.672809e+01 3.451003e+01 7.304112e+01 5.647528e+01 4.161123e+01 1.004968e+02 1.409385e+02 1.585477e+02 9.042483e+01 4.075850e-02 3.331801e+00 8.322329e+00 5.666591e+00 5.585294e+00 5.335621e+00 8.213703e+00 7.719603e+00 5.715631e+00 8.875824e+00 1.257919e+01 1.487843e+01 9.281897e+00 1.151508e-02 3.077399e-01 7.313237e-01 5.885079e-01 7.086946e-01 5.384958e-01 9.595373e-01 1.073626e+00 6.523356e-01 1.763809e+00 2.652444e+00 2.962871e+00 1.619698e+00 6.041851e-04
<GCONST> 1.307340e+02
<MIXTURE> 3 7.145350e-02
<MEAN> 39
 -2.453571e+00 -4.093020e+00 1.045649e+00 2.597968e+00 4.504817e+00 5.422405e+00 5.252246e+00 5.213320e+00 4.181789e+00 3.284158e+00 3.016149e+00 2.082801e+00 1.824725e-01 -9.692336e-01 -4.375323e-01 -1.118719e-01 3.307475e-01 1.565725e-01 3.715659e-01 2.922714e-01 2.701437e-01 2.797843e-01 4.344963e-01 2.193615e-01 -1.434688e-01 -3.385666e-02 4.733625e-01 4.283554e-01 1.131056e-01 1.733219e-02 -2.150208e-01 -3.259728e-01 -4.357488e-01 -4.668193e-01 -3.888996e-01 -2.123941e-01 -2.692246e-01 -1.443495e-01 3.726522e-02
<VARIANCE> 39
 1.754783e+01 4.924935e+01 4.723226e+01 5.117640e+01 4.877341e+01 5.604689e+01 5.048221e+01 5.399175e+01 4.933908e+01 5.045770e+01 5.547058e+01 4.115657e+01 3.770299e-02 1.666902e+00 2.981089e+00 3.045613e+00 3.301034e+00 3.017841e+00 3.417670e+00 4.036536e+00 4.414705e+00 4.434753e+00 3.718774e+00 4.306657e+00 3.719624e+00 5.551386e-03 4.092467e-01 5.895205e-01 5.298419e-01 6.858013e-01 7.944532e-01 8.305095e-01 7.960538e-01 8.678116e-01 8.994624e-01 9.128565e-01 1.035730e+00 8.501095e-01 1.145208e-03
<GCONST> 1.135197e+02
<MIXTURE> 4 3.174391e-02
<MEAN> 39
 4.831847e+00 3.936236e+00 4.558798e+00 1.778005e+00 1.202609e+00 1.004561e-01 -1.601838e+00 -3.168192e+00 -7.925723e-01 -2.029258e+00 -2.615625e+00 -7.237996e-01 5.369182e-01 2.845925e+00 1.955557e+00 -6.400133e-01 -1.597288e+00 -1.215484e+00 -1.177704e+00 -1.553890e+00 -8.414578e-01 -1.176085e+00 -2.467934e-01 -3.185357e-01 -4.679337e-01 1.790415e-01 -6.863321e-01 -4.932440e-01 -5.034540e-01 -2.921417e-01 -4.101633e-02 1.234892e-01 2.005857e-01 4.680513e-01 4.233854e-01 3.795911e-01 4.679368e-01 3.395160e-01 -2.359927e-02
<VARIANCE> 39
 3.146559e+01 3.741553e+01 4.511292e+01 3.666464e+01 3.451279e+01 2.916636e+01 3.588404e+01 3.607549e+01 2.993544e+01 2.853810e+01 2.846516e+01 1.731916e+01 2.332479e-02 3.124523e+00 2.846548e+00 5.849726e+00 3.965197e+00 3.234835e+00 3.109675e+00 3.925160e+00 3.412184e+00 4.150846e+00 3.505083e+00 3.657057e+00 3.203678e+00 2.942592e-03 3.763975e-01 2.286738e-01 4.106700e-01 6.059226e-01 3.730561e-01 4.738251e-01 5.371471e-01 4.905408e-01 4.935686e-01 4.588274e-01 4.458373e-01 3.243094e-01 3.553149e-04
<GCONST> 1.007028e+02
<MIXTURE> 5 7.144936e-02
<MEAN> 39
 -2.453805e+00 -4.092705e+00 1.046516e+00 2.598761e+00 4.504973e+00 5.422079e+00 5.251973e+00 5.213988e+00 4.182790e+00 3.285199e+00 3.015669e+00 2.081943e+00 1.824202e-01 -9.692389e-01 -4.374897e-01 -1.119373e-01 3.305763e-01 1.565164e-01 3.715526e-01 2.923337e-01 2.701724e-01 2.799177e-01 4.344344e-01 2.193305e-01 -1.434128e-01 -3.385879e-02 4.734289e-01 4.283890e-01 1.130728e-01 1.730167e-02 -2.150007e-01 -3.259728e-01 -4.357632e-01 -4.669282e-01 -3.890573e-01 -2.125592e-01 -2.691673e-01 -1.441789e-01 3.726874e-02
<VARIANCE> 39
 1.754718e+01 4.924623e+01 4.722676e+01 5.116787e+01 4.876720e+01 5.602996e+01 5.047403e+01 5.398385e+01 4.933227e+01 5.043965e+01 5.545565e+01 4.114677e+01 3.769760e-02 1.666850e+00 2.980703e+00 3.045145e+00 3.300409e+00 3.017511e+00 3.416968e+00 4.035627e+00 4.413861e+00 4.433547e+00 3.717588e+00 4.305136e+00 3.718660e+00 5.551094e-03 4.092456e-01 5.894722e-01 5.298277e-01 6.856812e-01 7.943267e-01 8.301988e-01 7.959031e-01 8.676667e-01 8.992047e-01 9.124637e-01 1.035340e+00 8.497838e-01 1.145163e-03
<GCONST> 1.135123e+02
<MIXTURE> 6 1.306879e-01
<MEAN> 39
 -2.042927e+00 -1.062941e+00 2.024056e+00 2.554755e+00 3.149664e+00 3.640668e+00 1.668411e+00 2.720584e+00 3.175514e+00 1.370145e+00 1.715085e+00 1.022172e+00 1.234118e-02 -2.864799e-01 5.474636e-02 -2.917338e-04 6.549975e-02 -8.638403e-02 -1.008083e-02 -3.515387e-03 6.652974e-02 -3.848620e-02 -9.640533e-03 -1.490116e-02 -4.455871e-02 -1.047761e-02 1.556808e-01 1.533690e-01 6.206624e-02 6.957266e-02 8.416175e-04 -3.890209e-03 -2.425337e-02 -1.102448e-02 -4.409757e-02 -1.013775e-03 -2.125940e-02 2.171759e-02 1.941183e-02
<VARIANCE> 39
 1.033453e+01 4.148871e+01 2.163514e+01 2.504959e+01 2.340944e+01 2.617362e+01 2.556193e+01 3.220713e+01 2.342570e+01 2.549042e+01 2.481742e+01 1.810657e+01 2.129998e-02 9.744689e-01 1.372125e+00 1.119204e+00 1.415611e+00 1.611468e+00 1.738881e+00 1.738863e+00 2.028780e+00 1.996705e+00 1.865175e+00 1.694131e+00 1.500076e+00 2.907556e-03 1.873842e-01 2.776206e-01 2.247580e-01 2.672083e-01 3.105894e-01 3.511839e-01 3.527913e-01 4.018768e-01 4.008295e-01 3.673578e-01 3.352344e-01 3.069460e-01 5.804172e-04
<GCONST> 8.368503e+01
<MIXTURE> 7 3.174264e-02
<MEAN> 39
 4.831864e+00 3.936152e+00 4.558581e+00 1.777869e+00 1.202671e+00 1.005067e-01 -1.601741e+00 -3.168053e+00 -7.925327e-01 -2.029126e+00 -2.615475e+00 -7.237202e-01 5.369166e-01 2.845974e+00 1.955533e+00 -6.400899e-01 -1.597317e+00 -1.215455e+00 -1.177701e+00 -1.553879e+00 -8.414637e-01 -1.176116e+00 -2.467684e-01 -3.185295e-01 -4.679343e-01 1.790422e-01 -6.863205e-01 -4.932377e-01 -5.034344e-01 -2.921193e-01 -4.101634e-02 1.234863e-01 2.005777e-01 4.680389e-01 4.233725e-01 3.795760e-01 4.679156e-01 3.395022e-01 -2.359897e-02
<VARIANCE> 39
 3.146617e+01 3.741548e+01 4.511371e+01 3.666497e+01 3.451260e+01 2.916616e+01 3.588416e+01 3.607519e+01 2.993521e+01 2.853822e+01 2.846498e+01 1.731912e+01 2.332487e-02 3.124521e+00 2.846570e+00 5.849856e+00 3.965213e+00 3.234797e+00 3.109658e+00 3.925181e+00 3.412165e+00 4.150803e+00 3.505123e+00 3.657023e+00 3.203660e+00 2.942582e-03 3.763940e-01 2.286730e-01 4.106736e-01 6.059232e-01 3.730542e-01 4.738222e-01 5.371450e-01 4.905361e-01 4.935659e-01 4.588290e-01 4.458304e-01 3.243064e-01 3.553147e-04
<GCONST> 1.007028e+02
<MIXTURE> 8 3.561505e-02
<MEAN> 39
 8.288406e+00 6.954084e+00 -6.288443e-01 -6.467030e+00 -4.263925e+00 -4.434805e+00 -3.766267e+00 1.970451e+00 2.954787e+00 6.112271e+00 7.481395e+00 7.097950e+00 6.498469e-01 1.572416e+00 6.874692e-01 -2.188716e+00 -2.595156e+00 -1.556305e+00 -2.307347e+00 -1.581783e+00 -1.705187e+00 -1.988521e+00 -1.355790e+00 -1.175455e+00 -4.089220e-01 1.507624e-01 -1.195681e+00 -4.484941e-01 3.632115e-01 8.445618e-01 9.561753e-01 9.579738e-01 7.725409e-01 4.140305e-01 -1.483558e-01 -5.686639e-01 -9.223504e-01 -9.059203e-01 -4.211279e-02
<VARIANCE> 39
 3.596782e+01 4.834673e+01 5.712397e+01 3.333673e+01 2.693519e+01 4.502293e+01 5.240325e+01 3.541345e+01 4.806693e+01 4.202168e+01 4.342233e+01 5.044649e+01 1.661217e-02 3.836859e+00 3.202608e+00 4.334557e+00 3.437332e+00 3.538277e+00 4.745748e+00 3.472446e+00 2.605276e+00 3.621879e+00 4.408386e+00 4.644011e+00 5.025043e+00 4.054572e-03 3.550560e-01 3.587104e-01 6.563657e-01 5.164707e-01 5.966004e-01 6.573561e-01 9.943522e-01 7.004102e-01 7.279961e-01 7.853477e-01 6.149420e-01 8.645144e-01 2.196830e-04
<GCONST> 1.091132e+02
<MIXTURE> 9 7.145540e-02
<MEAN> 39
 -2.453550e+00 -4.092969e+00 1.045543e+00 2.597765e+00 4.504644e+00 5.422291e+00 5.252148e+00 5.213213e+00 4.181759e+00 3.284159e+00 3.016281e+00 2.082898e+00 1.824779e-01 -9.692415e-01 -4.375487e-01 -1.118742e-01 3.307763e-01 1.565874e-01 3.715725e-01 2.922746e-01 2.701464e-01 2.797686e-01 4.344966e-01 2.193587e-01 -1.434763e-01 -3.385657e-02 4.733555e-01 4.283505e-01 1.131125e-01 1.734732e-02 -2.150063e-01 -3.259546e-01 -4.357317e-01 -4.668020e-01 -3.888937e-01 -2.123936e-01 -2.692434e-01 -1.443676e-01 3.726511e-02
<VARIANCE> 39
 1.754787e+01 4.924961e+01 4.723230e+01 5.117732e+01 4.877451e+01 5.604871e+01 5.048346e+01 5.399242e+01 4.933944e+01 5.045898e+01 5.547179e+01 4.115728e+01 3.770335e-02 1.666922e+00 2.981158e+00 3.045678e+00 3.301121e+00 3.017900e+00 3.417787e+00 4.036654e+00 4.414793e+00 4.434901e+00 3.718907e+00 4.306869e+00 3.719747e+00 5.551433e-03 4.092476e-01 5.895333e-01 5.298417e-01 6.858176e-01 7.944763e-01 8.305458e-01 7.960734e-01 8.678232e-01 8.994792e-01 9.128820e-01 1.035767e+00 8.501437e-01 1.145215e-03
<GCONST> 1.135206e+02
<MIXTURE> 10 1.306898e-01
<MEAN> 39
 -2.042926e+00 -1.062807e+00 2.024098e+00 2.554751e+00 3.149624e+00 3.640706e+00 1.668402e+00 2.720653e+00 3.175541e+00 1.370123e+00 1.715073e+00 1.022142e+00 1.233672e-02 -2.864682e-01 5.475290e-02 -2.859262e-04 6.550300e-02 -8.637621e-02 -1.007017e-02 -3.507661e-03 6.653697e-02 -3.848398e-02 -9.639605e-03 -1.490292e-02 -4.455722e-02 -1.047728e-02 1.556723e-01 1.533586e-01 6.206346e-02 6.957258e-02 8.439089e-04 -3.889962e-03 -2.425274e-02 -1.102557e-02 -4.409664e-02 -1.009855e-03 -2.125366e-02 2.172031e-02 1.941122e-02
<VARIANCE> 39
 1.033436e+01 4.148857e+01 2.163482e+01 2.504928e+01 2.340913e+01 2.617334e+01 2.556168e+01 3.220682e+01 2.342526e+01 2.549016e+01 2.481725e+01 1.810644e+01 2.129947e-02 9.744266e-01 1.372077e+00 1.119171e+00 1.415578e+00 1.611437e+00 1.738852e+00 1.738832e+00 2.028744e+00 1.996664e+00 1.865152e+00 1.694105e+00 1.500060e+00 2.907388e-03 1.873797e-01 2.776153e-01 2.247527e-01 2.672026e-01 3.105845e-01 3.511800e-01 3.527860e-01 4.018709e-01 4.008236e-01 3.673544e-01 3.352302e-01 3.069426e-01 5.804037e-04
<GCONST> 8.368435e+01
<MIXTURE> 11 1.307099e-01
<MEAN> 39
 -2.042893e+00 -1.062201e+00 2.024281e+00 2.554810e+00 3.149483e+00 3.640964e+00 1.668422e+00 2.721009e+00 3.175682e+00 1.370078e+00 1.715129e+00 1.022094e+00 1.231418e-02 -2.864044e-01 5.478719e-02 -2.659060e-04 6.549945e-02 -8.634680e-02 -1.003182e-02 -3.477605e-03 6.656723e-02 -3.846648e-02 -9.630091e-03 -1.490752e-02 -4.455281e-02 -1.047652e-02 1.556278e-01 1.533114e-01 6.205541e-02 6.956580e-02 8.482202e-04 -3.896764e-03 -2.425663e-02 -1.103299e-02 -4.409270e-02 -9.993521e-04 -2.123928e-02 2.172152e-02 1.940753e-02
<VARIANCE> 39
 1.033337e+01 4.148722e+01 2.163258e+01 2.504669e+01 2.340687e+01 2.617150e+01 2.556011e+01 3.220471e+01 2.342261e+01 2.548872e+01 2.481610e+01 1.810567e+01 2.129700e-02 9.741800e-01 1.371760e+00 1.118985e+00 1.415365e+00 1.611244e+00 1.738649e+00 1.738645e+00 2.028505e+00 1.996396e+00 1.865021e+00 1.693963e+00 1.499967e+00 2.906424e-03 1.873503e-01 2.775729e-01 2.247193e-01 2.671623e-01 3.105486e-01 3.511474e-01 3.527529e-01 4.018280e-01 4.007865e-01 3.673286e-01 3.352066e-01 3.069226e-01 5.803082e-04
<GCONST> 8.367993e+01
<MIXTURE> 12 7.651683e-02
<MEAN> 39
 -2.802879e+00 -6.705216e-01 3.506550e+00 4.722195e+00 5.064319e+00 5.119661e+00 4.498466e+00 5.197386e+00 4.858669e+00 5.462733e+00 4.457179e+00 2.847246e+00 1.964269e-01 1.915701e+00 1.415696e+00 -6.896433e-01 -1.325259e+00 -1.625958e+00 -1.848437e+00 -1.404209e+00 -1.294694e+00 -8.701432e-01 9.924161e-04 -3.659818e-01 9.936567e-02 1.623358e-01 4.411905e-01 2.962089e-02 -3.653867e-01 -5.408950e-01 -4.923797e-01 -3.501480e-01 -4.159482e-01 -3.701095e-01 -5.534446e-01 -4.857795e-01 -3.799872e-01 -1.541612e-01 3.183881e-02
<VARIANCE> 39
 2.502859e+01 6.560938e+01 4.591273e+01 4.052632e+01 3.683833e+01 4.971449e+01 3.610728e+01 4.255097e+01 4.129622e+01 3.223235e+01 3.842106e+01 3.107135e+01 5.181843e-02 2.366453e+00 6.589677e+00 5.725913e+00 5.102270e+00 4.130002e+00 5.123005e+00 5.537073e+00 4.438016e+00 4.323493e+00 4.566816e+00 4.805495e+00 4.208949e+00 4.030136e-03 4.346348e-01 7.627929e-01 6.921707e-01 6.704617e-01 6.216819e-01 8.401637e-01 7.963158e-01 7.266341e-01 8.017213e-01 7.008348e-01 7.451773e-01 6.784802e-01 1.001813e-03
<GCONST> 1.143967e+02
<MIXTURE> 13 3.174394e-02
<MEAN> 39
 4.831952e+00 3.936243e+00 4.558706e+00 1.777874e+00 1.202571e+00 1.004332e-01 -1.601856e+00 -3.168172e+00 -7.925862e-01 -2.029197e+00 -2.615582e+00 -7.237862e-01 5.369197e-01 2.845937e+00 1.955537e+00 -6.400528e-01 -1.597314e+00 -1.215474e+00 -1.177699e+00 -1.553880e+00 -8.414549e-01 -1.176090e+00 -2.467683e-01 -3.185262e-01 -4.679219e-01 1.790412e-01 -6.863402e-01 -4.932457e-01 -5.034465e-01 -2.921246e-01 -4.100880e-02 1.234946e-01 2.005902e-01 4.680512e-01 4.233853e-01 3.795848e-01 4.679311e-01 3.395132e-01 -2.359952e-02
<VARIANCE> 39
 3.146570e+01 3.741552e+01 4.511347e+01 3.666507e+01 3.451271e+01 2.916637e+01 3.588416e+01 3.607541e+01 2.993539e+01 2.853802e+01 2.846511e+01 1.731916e+01 2.332472e-02 3.124533e+00 2.846539e+00 5.849776e+00 3.965207e+00 3.234824e+00 3.109678e+00 3.925164e+00 3.412174e+00 4.150846e+00 3.505102e+00 3.657029e+00 3.203666e+00 2.942611e-03 3.763976e-01 2.286735e-01 4.106730e-01 6.059288e-01 3.730564e-01 4.738258e-01 5.371475e-01 4.905412e-01 4.935686e-01 4.588265e-01 4.458368e-01 3.243094e-01 3.553141e-04
<GCONST> 1.007029e+02
<MIXTURE> 14 2.943470e-02
<MEAN> 39
 3.305361e+00 6.210962e+00 5.254817e+00 3.280134e-01 -3.210838e+00 -1.961369e+00 -4.762986e+00 -7.923170e-02 2.839709e+00 4.208519e+00 5.535581e+00 5.354216e+00 5.013822e-01 1.983056e+00 1.743385e+00 -1.447542e+00 -2.475634e+00 -2.607359e+00 -2.934446e+00 -2.230188e+00 -2.005866e+00 -1.427380e+00 -9.693096e-01 -3.545617e-01 -2.883403e-01 1.820967e-01 -6.226207e-01 -4.212969e-01 -3.285270e-01 -1.814613e-02 6.291673e-01 5.879638e-01 8.057852e-01 5.817779e-01 3.774378e-02 -2.807678e-01 -4.886653e-01 -5.958884e-01 -2.016492e-02
<VARIANCE> 39
 2.067518e+01 4.794011e+01 4.280215e+01 3.459175e+01 3.571007e+01 2.967517e+01 3.851374e+01 4.693814e+01 4.668227e+01 4.524102e+01 4.034181e+01 3.681969e+01 2.758781e-02 2.970038e+00 5.229588e+00 4.255017e+00 3.315930e+00 3.503244e+00 4.015245e+00 4.836631e+00 4.519008e+00 4.281051e+00 4.102247e+00 4.705706e+00 4.939167e+00 4.239534e-03 2.417622e-01 3.430938e-01 4.776314e-01 6.033216e-01 4.177646e-01 5.067159e-01 6.056771e-01 8.512018e-01 7.781227e-01 6.822746e-01 5.724852e-01 5.626937e-01 3.649229e-04
<GCONST> 1.077460e+02
<MIXTURE> 15 2.943425e-02
<MEAN> 39
 3.305342e+00 6.210968e+00 5.254861e+00 3.279583e-01 -3.211009e+00 -1.961447e+00 -4.763132e+00 -7.948380e-02 2.839574e+00 4.208333e+00 5.535475e+00 5.354127e+00 5.013850e-01 1.983012e+00 1.743391e+00 -1.447495e+00 -2.475607e+00 -2.607347e+00 -2.934393e+00 -2.230167e+00 -2.005842e+00 -1.427365e+00 -9.693267e-01 -3.545644e-01 -2.883821e-01 1.820950e-01 -6.226250e-01 -4.213022e-01 -3.285338e-01 -1.814530e-02 6.291802e-01 5.879722e-01 8.058010e-01 5.818064e-01 3.776640e-02 -2.807462e-01 -4.886500e-01 -5.958809e-01 -2.016529e-02
<VARIANCE> 39
 2.067514e+01 4.794028e+01 4.280219e+01 3.459171e+01 3.571093e+01 2.967548e+01 3.851378e+01 4.693959e+01 4.668325e+01 4.524203e+01 4.034232e+01 3.682047e+01 2.758789e-02 2.970036e+00 5.229585e+00 4.255025e+00 3.315952e+00 3.503312e+00 4.015289e+00 4.836681e+00 4.519085e+00 4.281102e+00 4.102249e+00 4.705702e+00 4.939175e+00 4.239650e-03 2.417623e-01 3.430975e-01 4.776305e-01 6.033259e-01 4.177718e-01 5.067237e-01 6.056820e-01 8.512374e-01 7.781398e-01 6.822821e-01 5.724936e-01 5.627007e-01 3.649307e-04
<GCONST> 1.077465e+02
~h "#i"
<BEGINHMM>
<NUMSTATES> 16
<STATE> 2
<NUMMIXES> 15
<MIXTURE> 1 2.484703e-02
<MEAN> 39
 -6.185584e+00 9.845432e+00 -4.554760e+00 -5.028131e+00 -6.413810e+00 -3.867968e+00 2.746041e+00 3.053965e+00 1.321004e+01 1.504642e+01 1.082453e+01 8.700680e+00 9.113827e-01 -5.748909e-01 -6.771321e-02 1.132161e-01 -1.754709e-01 -6.829225e-02 1.553464e-01 -2.811001e-01 4.806656e-02 1.529678e+00 2.470675e+00 1.355835e+00 1.042483e+00 2.606574e-02 6.108232e-01 -5.052473e-02 2.055592e-01 1.928274e-01 1.765583e-01 2.805864e-01 3.747034e-01 3.109013e-01 -3.906392e-01 -9.624857e-01 -1.212157e+00 -1.098530e+00 -1.745845e-02
<VARIANCE> 39
 9.166147e+00 2.579922e+01 1.466988e+01 2.808815e+01 6.145402e+00 7.814658e+00 2.865016e+01 2.714786e+01 6.518349e+01 4.802165e+01 2.800255e+01 8.567300e+01 1.644471e-03 9.466134e-01 8.318269e-01 1.089539e+00 1.337599e+00 6.343853e-01 9.523452e-01 1.375635e+00 1.188037e+00 3.399085e+00 4.723000e+00 4.571705e+00 2.622062e+00 2.763794e-04 9.692001e-02 1.471753e-01 3.661610e-01 3.682593e-01 2.880851e-01 2.804979e-01 3.379570e-01 2.851974e-01 8.331969e-01 7.079296e-01 3.004035e-01 3.389197e-01 2.498405e-04
<GCONST> 7.808876e+01
<MIXTURE> 2 2.702633e-02
<MEAN> 39
 -2.263261e-01 9.071105e+00 -3.864638e+00 -3.089194e+00 -6.099475e+00 -5.002550e+00 -1.076617e+00 -1.984464e+00 1.873795e+00 -8.086336e-01 2.829031e+00 3.435046e+00 7.444349e-01 -6.261786e-01 6.127478e-01 -9.870675e-02 1.438931e-01 -5.014122e-01 2.226697e-01 -8.076670e-01 -4.148957e-01 6.295270e-03 2.517360e-01 1.234814e+00 9.687396e-01 3.321374e-02 5.221931e-02 -1.398377e-01 2.087414e-01 5.922706e-02 1.251658e-01 1.868873e-01 4.730315e-02 3.348041e-01 1.201703e-01 2.945345e-01 7.925083e-02 -2.879939e-02 -5.053271e-03
<VARIANCE> 39
 1.991279e+01 4.472883e+01 3.567443e+01 1.527004e+01 2.858630e+01 2.355713e+01 3.377013e+01 4.827679e+01 6.032695e+01 1.064844e+02 8.701491e+01 9.886951e+01 2.108373e-02 1.203335e+00 2.391920e+00 1.311776e+00 2.058773e+00 1.566355e+00 2.624937e+00 3.733797e+00 5.229050e+00 5.515742e+00 5.315219e+00 7.841495e+00 1.074137e+01 1.034475e-03 2.072553e-01 4.705865e-01 2.794919e-01 3.060906e-01 3.037428e-01 5.462741e-01 5.261112e-01 5.250449e-01 8.714814e-01 8.790781e-01 1.020250e+00 1.206571e+00 2.113752e-04
<GCONST> 1.036314e+02
<MIXTURE> 3 2.702584e-02
<MEAN> 39
 -2.268164e-01 9.069843e+00 -3.863821e+00 -3.089692e+00 -6.100089e+00 -5.003045e+00 -1.077320e+00 -1.984667e+00 1.873925e+00 -8.084238e-01 2.828793e+00 3.434170e+00 7.443960e-01 -6.257956e-01 6.132151e-01 -9.844356e-02 1.443451e-01 -5.013247e-01 2.229729e-01 -8.076742e-01 -4.145506e-01 5.999946e-03 2.511608e-01 1.233691e+00 9.676083e-01 3.320936e-02 5.223845e-02 -1.397008e-01 2.087092e-01 5.917279e-02 1.251857e-01 1.870126e-01 4.728965e-02 3.349169e-01 1.202152e-01 2.945384e-01 7.924747e-02 -2.879686e-02 -5.049711e-03
<VARIANCE> 39
 1.990922e+01 4.473324e+01 3.567212e+01 1.527056e+01 2.858566e+01 2.355859e+01 3.377293e+01 4.828418e+01 6.032397e+01 1.064831e+02 8.700519e+01 9.885971e+01 2.109065e-02 1.203588e+00 2.392634e+00 1.312133e+00 2.059546e+00 1.566630e+00 2.625339e+00 3.735142e+00 5.229583e+00 5.517164e+00 5.316059e+00 7.842675e+00 1.074226e+01 1.034599e-03 2.072674e-01 4.708084e-01 2.795226e-01 3.061292e-01 3.037414e-01 5.463500e-01 5.261603e-01 5.250882e-01 8.717073e-01 8.793231e-01 1.020478e+00 1.206529e+00 2.113518e-04
<GCONST> 1.036360e+02
<MIXTURE> 4 8.387467e-02
<MEAN> 39
 1.685398e+00 1.254970e+01 -1.715234e+00 -1.585291e+00 -4.133215e+00 -4.034890e+00 -2.248522e+00 1.372657e+00 -3.206886e-01 7.099965e-01 6.765418e-02 8.783843e-01 7.114139e-01 -6.119205e-02 1.061857e+00 -2.453529e-01 3.394293e-01 -6.185799e-01 -8.645201e-02 -7.537579e-01 -2.572896e-01 -5.593454e-01 -2.700846e-01 -3.069892e-01 7.910747e-02 1.869880e-02 -1.292890e-01 -3.312299e-01 -5.129852e-03 -1.977568e-01 -3.959183e-02 -9.041774e-02 -6.186832e-02 -1.471640e-01 -1.287459e-01 -1.704936e-01 -1.274402e-01 -8.700205e-02 5.562208e-03
<VARIANCE> 39
 1.208606e+01 2.667415e+01 2.328202e+01 2.576424e+01 2.056528e+01 1.964045e+01 5.399121e+01 2.807595e+01 3.019437e+01 3.504900e+01 4.714543e+01 4.529870e+01 1.570819e-02 7.159279e-01 1.394647e+00 1.162779e+00 1.671495e+00 1.474122e+00 1.996561e+00 2.022473e+00 2.213564e+00 2.133652e+00 2.104532e+00 2.982539e+00 2.545708e+00 9.258811e-04 1.111130e-01 2.620845e-01 2.184559e-01 3.070286e-01 2.973315e-01 3.805719e-01 4.343300e-01 3.623334e-01 3.603982e-01 4.404812e-01 5.052869e-01 4.901683e-01 1.557627e-04
<GCONST> 8.516800e+01
<MIXTURE> 5 2.702584e-02
<MEAN> 39
 -2.268164e-01 9.069843e+00 -3.863821e+00 -3.089692e+00 -6.100089e+00 -5.003045e+00 -1.077320e+00 -1.984667e+00 1.873925e+00 -8.084238e-01 2.828793e+00 3.434170e+00 7.443960e-01 -6.257956e-01 6.132151e-01 -9.844356e-02 1.443451e-01 -5.013247e-01 2.229729e-01 -8.076742e-01 -4.145506e-01 5.999946e-03 2.511608e-01 1.233691e+00 9.676083e-01 3.320936e-02 5.223845e-02 -1.397008e-01 2.087092e-01 5.917279e-02 1.251857e-01 1.870126e-01 4.728965e-02 3.349169e-01 1.202152e-01 2.945384e-01 7.924747e-02 -2.879686e-02 -5.049711e-03
<VARIANCE> 39
 1.990922e+01 4.473324e+01 3.567212e+01 1.527056e+01 2.858566e+01 2.355859e+01 3.377293e+01 4.828418e+01 6.032397e+01 1.064831e+02 8.700519e+01 9.885971e+01 2.109065e-02 1.203588e+00 2.392634e+00 1.312133e+00 2.059546e+00 1.566630e+00 2.625339e+00 3.735142e+00 5.229583e+00 5.517164e+00 5.316059e+00 7.842675e+00 1.074226e+01 1.034599e-03 2.072674e-01 4.708084e-01 2.795226e-01 3.061292e-01 3.037414e-01 5.463500e-01 5.261603e-01 5.250882e-01 8.717073e-01 8.793231e-01 1.020478e+00 1.206529e+00 2.113518e-04
<GCONST> 1.036360e+02
<MIXTURE> 6 8.387299e-02
<MEAN> 39
 1.685326e+00 1.254964e+01 -1.715192e+00 -1.585180e+00 -4.133457e+00 -4.035035e+00 -2.249002e+00 1.372612e+00 -3.207074e-01 7.096696e-01 6.778292e-02 8.779023e-01 7.114127e-01 -6.121748e-02 1.061935e+00 -2.453527e-01 3.394503e-01 -6.185861e-01 -8.637802e-02 -7.538046e-01 -2.572621e-01 -5.593782e-01 -2.701017e-01 -3.069796e-01 7.906558e-02 1.869945e-02 -1.292844e-01 -3.312643e-01 -5.098564e-03 -1.977649e-01 -3.956465e-02 -9.037551e-02 -6.181521e-02 -1.471484e-01 -1.287236e-01 -1.704573e-01 -1.274321e-01 -8.695359e-02 5.561348e-03
<VARIANCE> 39
 1.208601e+01 2.667522e+01 2.328215e+01 2.576566e+01 2.056676e+01 1.964179e+01 5.399391e+01 2.807616e+01 3.019427e+01 3.504900e+01 4.714706e+01 4.529807e+01 1.570847e-02 7.159917e-01 1.394790e+00 1.162905e+00 1.671637e+00 1.474241e+00 1.996674e+00 2.022567e+00 2.213775e+00 2.133774e+00 2.104578e+00 2.982620e+00 2.545777e+00 9.260607e-04 1.111223e-01 2.621137e-01 2.184772e-01 3.070619e-01 2.973523e-01 3.805912e-01 4.343546e-01 3.623560e-01 3.604105e-01 4.404886e-01 5.053051e-01 4.901767e-01 1.557969e-04
<GCONST> 8.517030e+01
<MIXTURE> 7 8.387188e-02
<MEAN> 39
 1.685313e+00 1.254966e+01 -1.715196e+00 -1.585180e+00 -4.133470e+00 -4.035044e+00 -2.249042e+00 1.372604e+00 -3.207213e-01 7.096477e-01 6.779242e-02 8.778760e-01 7.114133e-01 -6.121936e-02 1.061938e+00 -2.453524e-01 3.394537e-01 -6.185858e-01 -8.637332e-02 -7.538071e-01 -2.572599e-01 -5.593804e-01 -2.701012e-01 -3.069767e-01 7.906666e-02 1.869939e-02 -1.292831e-01 -3.312664e-01 -5.096216e-03 -1.977655e-01 -3.956364e-02 -9.037410e-02 -6.181208e-02 -1.471467e-01 -1.287217e-01 -1.704553e-01 -1.274327e-01 -8.695242e-02 5.561294e-03
<VARIANCE> 39
 1.208601e+01 2.667524e+01 2.328220e+01 2.576578e+01 2.056686e+01 1.964184e+01 5.399406e+01 2.807609e+01 3.019421e+01 3.504898e+01 4.714711e+01 4.529797e+01 1.570844e-02 7.159944e-01 1.394793e+00 1.162912e+00 1.671644e+00 1.474248e+00 1.996682e+00 2.022567e+00 2.213785e+00 2.133781e+00 2.104580e+00 2.982626e+00 2.545785e+00 9.260520e-04 1.111221e-01 2.621149e-01 2.184784e-01 3.070639e-01 2.973534e-01 3.805925e-01 4.343559e-01 3.623567e-01 3.604104e-01 4.404894e-01 5.053046e-01 4.901763e-01 1.557979e-04
<GCONST> 8.517035e+01
<MIXTURE> 8 1.973162e-01
<MEAN> 39
 -1.741735e+00 9.374877e+00 -1.216886e-01 -9.684797e+00 -1.647268e+00 -8.604754e+00 -2.077917e+00 2.536865e+00 1.985738e-02 -1.084854e+00 5.332777e-01 -2.812934e+00 8.127915e-01 -4.382906e-01 2.563955e+00 -1.410482e+00 1.773164e+00 -5.338979e-01 -1.639432e+00 -4.205666e-01 -9.777963e-01 -9.835502e-01 -4.389549e-01 1.069717e-01 1.794734e-01 -8.537871e-03 2.845930e-01 -5.904832e-01 1.115431e-01 6.558740e-01 -6.144630e-01 8.865952e-01 7.268462e-02 -2.692489e-01 -1.844384e-01 -2.291956e-03 -2.894945e-01 1.566525e-01 1.845328e-03
<VARIANCE> 39
 9.347324e+00 2.714428e+01 2.312431e+01 2.804148e+01 2.200060e+01 3.377314e+01 4.527410e+01 3.508931e+01 3.643820e+01 3.700641e+01 3.614549e+01 3.890385e+01 6.481054e-03 6.105065e-01 1.770367e+00 1.015559e+00 1.902020e+00 2.943337e+00 4.701009e+00 3.131703e+00 2.964615e+00 3.627308e+00 6.687520e+00 4.814167e+00 4.519033e+00 2.552776e-04 8.338489e-02 3.221950e-01 3.041986e-01 5.688009e-01 4.672031e-01 5.330673e-01 5.417976e-01 6.798461e-01 6.677966e-01 6.756358e-01 5.619075e-01 7.372500e-01 2.553855e-05
<GCONST> 9.066060e+01
<MIXTURE> 9 2.702570e-02
<MEAN> 39
 -2.267393e-01 9.069514e+00 -3.864317e+00 -3.089790e+00 -6.099701e+00 -5.002762e+00 -1.076794e+00 -1.983881e+00 1.874868e+00 -8.065159e-01 2.830081e+00 3.435003e+00 7.444006e-01 -6.257038e-01 6.131841e-01 -9.843604e-02 1.443644e-01 -5.013379e-01 2.229717e-01 -8.077170e-01 -4.145873e-01 5.945776e-03 2.511078e-01 1.233461e+00 9.674184e-01 3.320696e-02 5.223489e-02 -1.396792e-01 2.087089e-01 5.915813e-02 1.251445e-01 1.869506e-01 4.724509e-02 3.348666e-01 1.201440e-01 2.944316e-01 7.916969e-02 -2.885113e-02 -5.048713e-03
<VARIANCE> 39
 1.990751e+01 4.473379e+01 3.567373e+01 1.527145e+01 2.858651e+01 2.355996e+01 3.377272e+01 4.828811e+01 6.032575e+01 1.064827e+02 8.701225e+01 9.885667e+01 2.109055e-02 1.203562e+00 2.392716e+00 1.312168e+00 2.059701e+00 1.566733e+00 2.625509e+00 3.735268e+00 5.230185e+00 5.517839e+00 5.316323e+00 7.842397e+00 1.074162e+01 1.034701e-03 2.072596e-01 4.708455e-01 2.795240e-01 3.061478e-01 3.037456e-01 5.464012e-01 5.261796e-01 5.251659e-01 8.717426e-01 8.793604e-01 1.020513e+00 1.206520e+00 2.113438e-04
<GCONST> 1.036373e+02
<MIXTURE> 10 8.387188e-02
<MEAN> 39
 1.685313e+00 1.254966e+01 -1.715196e+00 -1.585180e+00 -4.133470e+00 -4.035044e+00 -2.249042e+00 1.372604e+00 -3.207213e-01 7.096477e-01 6.779242e-02 8.778760e-01 7.114133e-01 -6.121936e-02 1.061938e+00 -2.453524e-01 3.394537e-01 -6.185858e-01 -8.637332e-02 -7.538071e-01 -2.572599e-01 -5.593804e-01 -2.701012e-01 -3.069767e-01 7.906666e-02 1.869939e-02 -1.292831e-01 -3.312664e-01 -5.096216e-03 -1.977655e-01 -3.956364e-02 -9.037410e-02 -6.181208e-02 -1.471467e-01 -1.287217e-01 -1.704553e-01 -1.274327e-01 -8.695242e-02 5.561294e-03
<VARIANCE> 39
 1.208601e+01 2.667524e+01 2.328220e+01 2.576578e+01 2.056686e+01 1.964184e+01 5.399406e+01 2.807609e+01 3.019421e+01 3.504898e+01 4.714711e+01 4.529797e+01 1.570844e-02 7.159944e-01 1.394793e+00 1.162912e+00 1.671644e+00 1.474248e+00 1.996682e+00 2.022567e+00 2.213785e+00 2.133781e+00 2.104580e+00 2.982626e+00 2.545785e+00 9.260520e-04 1.111221e-01 2.621149e-01 2.184784e-01 3.070639e-01 2.973534e-01 3.805925e-01 4.343559e-01 3.623567e-01 3.604104e-01 4.404894e-01 5.053046e-01 4.901763e-01 1.557979e-04
<GCONST> 8.517035e+01
<MIXTURE> 11 8.387604e-02
<MEAN> 39
 1.685399e+00 1.254972e+01 -1.715239e+00 -1.585339e+00 -4.133130e+00 -4.034859e+00 -2.248403e+00 1.372643e+00 -3.206740e-01 7.100757e-01 6.765464e-02 8.785316e-01 7.114151e-01 -6.118704e-02 1.061832e+00 -2.453569e-01 3.394293e-01 -6.185807e-01 -8.647450e-02 -7.537482e-01 -2.573013e-01 -5.593385e-01 -2.700830e-01 -3.069853e-01 7.911589e-02 1.869849e-02 -1.292880e-01 -3.312204e-01 -5.138221e-03 -1.977539e-01 -3.960251e-02 -9.042888e-02 -6.188314e-02 -1.471651e-01 -1.287541e-01 -1.705027e-01 -1.274470e-01 -8.701864e-02 5.562458e-03
<VARIANCE> 39
 1.208611e+01 2.667379e+01 2.328200e+01 2.576383e+01 2.056481e+01 1.964009e+01 5.399040e+01 2.807587e+01 3.019450e+01 3.504913e+01 4.714486e+01 4.529887e+01 1.570809e-02 7.159046e-01 1.394598e+00 1.162738e+00 1.671459e+00 1.474087e+00 1.996521e+00 2.022435e+00 2.213499e+00 2.133616e+00 2.104519e+00 2.982511e+00 2.545693e+00 9.258087e-04 1.111100e-01 2.620759e-01 2.184491e-01 3.070175e-01 2.973251e-01 3.805674e-01 4.343219e-01 3.623268e-01 3.603946e-01 4.404806e-01 5.052796e-01 4.901640e-01 1.557514e-04
<GCONST> 8.516729e+01
<MIXTURE> 12 5.549867e-02
<MEAN> 39
 3.998213e-01 1.205281e+01 -2.880750e+00 -2.581664e+00 -5.993155e+00 -3.945013e+00 -3.606951e-03 1.901838e+00 -1.327582e-01 1.142516e+00 -7.900813e-01 3.136318e+00 7.896641e-01 -9.740759e-01 1.886502e-01 -6.694821e-01 -4.296735e-01 -7.944466e-01 -8.643040e-01 -1.103824e+00 -1.200822e+00 -1.574752e+00 -1.565855e+00 -1.161833e+00 -2.647188e-01 6.427684e-02 -2.605801e-01 -9.520331e-01 3.892445e-01 4.978463e-01 6.722088e-01 5.460656e-01 1.015484e-01 1.160194e-01 2.588209e-01 1.270250e-01 2.046563e-01 -1.093935e-01 -3.564279e-02
<VARIANCE> 39
 1.299623e+01 4.815922e+01 1.749632e+01 1.600636e+01 2.050361e+01 2.605889e+01 3.164042e+01 2.715317e+01 2.209119e+01 2.643651e+01 2.973026e+01 4.358588e+01 1.062665e-02 9.065830e-01 1.084993e+00 9.651340e-01 1.473579e+00 1.460867e+00 1.548512e+00 1.657307e+00 2.228320e+00 1.866844e+00 1.798281e+00 3.755959e+00 4.090792e+00 8.591862e-04 1.659571e-01 3.524845e-01 3.118944e-01 2.650108e-01 3.032038e-01 4.420702e-01 3.897771e-01 3.929953e-01 3.290478e-01 3.757062e-01 4.798722e-01 6.258776e-01 4.289790e-04
<GCONST> 8.485772e+01
<MIXTURE> 13 8.387443e-02
<MEAN> 39
 1.685369e+00 1.254967e+01 -1.715224e+00 -1.585271e+00 -4.133251e+00 -4.034938e+00 -2.248619e+00 1.372635e+00 -3.206834e-01 7.099155e-01 6.767917e-02 8.782667e-01 7.114135e-01 -6.119430e-02 1.061875e+00 -2.453541e-01 3.394410e-01 -6.185848e-01 -8.643583e-02 -7.537689e-01 -2.572861e-01 -5.593568e-01 -2.700883e-01 -3.069893e-01 7.909634e-02 1.869875e-02 -1.292860e-01 -3.312369e-01 -5.121654e-03 -1.977602e-01 -3.958786e-02 -9.040610e-02 -6.185703e-02 -1.471585e-01 -1.287417e-01 -1.704841e-01 -1.274387e-01 -8.699118e-02 5.562095e-03
<VARIANCE> 39
 1.208608e+01 2.667426e+01 2.328207e+01 2.576459e+01 2.056551e+01 1.964078e+01 5.399161e+01 2.807600e+01 3.019446e+01 3.504897e+01 4.714592e+01 4.529861e+01 1.570825e-02 7.159381e-01 1.394674e+00 1.162808e+00 1.671533e+00 1.474152e+00 1.996601e+00 2.022500e+00 2.213607e+00 2.133682e+00 2.104547e+00 2.982566e+00 2.545734e+00 9.259328e-04 1.111154e-01 2.620899e-01 2.184605e-01 3.070349e-01 2.973357e-01 3.805776e-01 4.343340e-01 3.623396e-01 3.604026e-01 4.404836e-01 5.052917e-01 4.901705e-01 1.557677e-04
<GCONST> 8.516855e+01
<MIXTURE> 14 5.549867e-02
<MEAN> 39
 3.998213e-01 1.205281e+01 -2.880750e+00 -2.581664e+00 -5.993155e+00 -3.945013e+00 -3.606951e-03 1.901838e+00 -1.327582e-01 1.142516e+00 -7.900813e-01 3.136318e+00 7.896641e-01 -9.740759e-01 1.886502e-01 -6.694821e-01 -4.296735e-01 -7.944466e-01 -8.643040e-01 -1.103824e+00 -1.200822e+00 -1.574752e+00 -1.565855e+00 -1.161833e+00 -2.647188e-01 6.427684e-02 -2.605801e-01 -9.520331e-01 3.892445e-01 4.978463e-01 6.722088e-01 5.460656e-01 1.015484e-01 1.160194e-01 2.588209e-01 1.270250e-01 2.046563e-01 -1.093935e-01 -3.564279e-02
<VARIANCE> 39
 1.299623e+01 4.815922e+01 1.749632e+01 1.600636e+01 2.050361e+01 2.605889e+01 3.164042e+01 2.715317e+01 2.209119e+01 2.643651e+01 2.973026e+01 4.358588e+01 1.062665e-02 9.065830e-01 1.084993e+00 9.651340e-01 1.473579e+00 1.460867e+00 1.548512e+00 1.657307e+00 2.228320e+00 1.866844e+00 1.798281e+00 3.755959e+00 4.090792e+00 8.591862e-04 1.659571e-01 3.524845e-01 3.118944e-01 2.650108e-01 3.032038e-01 4.420702e-01 3.897771e-01 3.929953e-01 3.290478e-01 3.757062e-01 4.798722e-01 6.258776e-01 4.289790e-04
<GCONST> 8.485772e+01
<MIXTURE> 15 5.549204e-02
<MEAN> 39
 4.001141e-01 1.205296e+01 -2.880162e+00 -2.581158e+00 -5.992658e+00 -3.944499e+00 -2.961586e-03 1.902315e+00 -1.325818e-01 1.143352e+00 -7.901838e-01 3.137176e+00 7.896565e-01 -9.740431e-01 1.886100e-01 -6.695138e-01 -4.297162e-01 -7.944591e-01 -8.642741e-01 -1.103848e+00 -1.200793e+00 -1.574843e+00 -1.565965e+00 -1.162067e+00 -2.648609e-01 6.427444e-02 -2.606079e-01 -9.520597e-01 3.891308e-01 4.977272e-01 6.721005e-01 5.459247e-01 1.014793e-01 1.159473e-01 2.587931e-01 1.269232e-01 2.046233e-01 -1.094915e-01 -3.563797e-02
<VARIANCE> 39
 1.299656e+01 4.815863e+01 1.749521e+01 1.600683e+01 2.050064e+01 2.605816e+01 3.163502e+01 2.715397e+01 2.209077e+01 2.643462e+01 2.972906e+01 4.358154e+01 1.062614e-02 9.065541e-01 1.084977e+00 9.650727e-01 1.473419e+00 1.460743e+00 1.548504e+00 1.657266e+00 2.228152e+00 1.866803e+00 1.798316e+00 3.755627e+00 4.089881e+00 8.590326e-04 1.659447e-01 3.524776e-01 3.118792e-01 2.650270e-01 3.031836e-01 4.420972e-01 3.897408e-01 3.929908e-01 3.290575e-01 3.757089e-01 4.798979e-01 6.257995e-01 4.290174e-04
<GCONST> 8.485606e+01
<STATE> 3
<NUMMIXES> 15
<MIXTURE> 1 4.567946e-03
<MEAN> 39
 -6.405482e+00 1.263368e+01 -8.672342e+00 -4.633566e+00 -8.951570e+00 -7.629448e+00 -8.012758e+00 -5.085274e+00 1.765990e+00 -1.547827e+00 1.001971e+00 9.855789e+00 7.869671e-01 3.121224e-01 1.030615e+00 1.714316e+00 1.593850e+00 7.685964e-01 1.958064e+00 1.521626e+00 6.365485e-02 1.506319e+00 1.902789e+00 1.507359e+00 2.120937e+00 1.492718e-02 6.219960e-01 4.389783e-01 7.157723e-01 6.766830e-01 7.286175e-01 5.455858e-01 8.232189e-01 6.209122e-01 2.891493e-01 3.677830e-01 1.614789e-01 -1.964418e-01 2.881853e-05
<VARIANCE> 39
 8.717881e+00 2.478977e+01 1.287162e+01 4.352096e+00 2.817431e+01 1.039153e+01 2.320553e+01 1.610306e+01 5.711426e+01 1.095961e+01 6.478180e+01 2.487559e+01 1.525742e-03 6.794268e-01 6.342697e-01 6.173542e-01 4.995714e-01 1.337902e+00 1.475870e+00 2.934321e+00 1.561252e+00 1.442786e+00 1.482306e+00 1.658004e+00 1.855398e-01 3.754082e-05 2.497552e-02 6.731457e-02 1.238760e-01 6.003151e-02 6.719980e-02 2.535643e-01 1.822133e-01 7.098157e-02 5.894563e-02 1.027400e-01 3.836480e-01 6.184909e-01 2.670346e-05
<GCONST> 5.281019e+01
<MIXTURE> 2 4.891367e-02
<MEAN> 39
 -2.493527e+00 1.030484e+01 -6.477992e+00 -3.892545e+00 -8.126282e+00 -7.841213e+00 -3.581560e+00 -3.633653e+00 -3.828506e+00 -1.352447e+00 -2.790381e+00 2.607535e+00 8.667774e-01 -3.916756e-01 -1.758390e-01 -1.099203e-01 4.362490e-01 -2.377170e-01 -6.798146e-02 -6.888060e-01 -8.903956e-01 -6.414047e-01 -5.248195e-01 -1.103411e-01 5.289187e-01 2.025855e-02 3.305207e-01 1.156560e-01 4.219860e-01 2.961693e-01 4.905339e-01 4.439743e-01 4.029817e-01 6.446488e-01 6.233414e-01 4.647887e-01 3.829189e-01 1.295293e-01 -8.281454e-03
<VARIANCE> 39
 1.353630e+01 3.467055e+01 1.799753e+01 1.814607e+01 2.109118e+01 2.925520e+01 3.358091e+01 3.039038e+01 5.107460e+01 4.807230e+01 7.499323e+01 8.359227e+01 7.220134e-03 4.773274e-01 5.494340e-01 6.669846e-01 1.302509e+00 1.380712e+00 1.149505e+00 1.426073e+00 1.551666e+00 1.669816e+00 1.991474e+00 3.398100e+00 4.069548e+00 2.260320e-04 1.054664e-01 1.329563e-01 1.415142e-01 2.247808e-01 2.526512e-01 3.151728e-01 2.694663e-01 2.924981e-01 3.442989e-01 4.773343e-01 5.980217e-01 6.774800e-01 1.310138e-04
<GCONST> 7.936360e+01
<MIXTURE> 3 4.891331e-02
<MEAN> 39
 -2.493727e+00 1.030470e+01 -6.477904e+00 -3.892639e+00 -8.126322e+00 -7.841480e+00 -3.581896e+00 -3.633875e+00 -3.829034e+00 -1.352950e+00 -2.791056e+00 2.607224e+00 8.667753e-01 -3.916634e-01 -1.758512e-01 -1.099300e-01 4.362593e-01 -2.376913e-01 -6.797205e-02 -6.888244e-01 -8.903875e-01 -6.413853e-01 -5.248519e-01 -1.103833e-01 5.288678e-01 2.025749e-02 3.305528e-01 1.156834e-01 4.219851e-01 2.961628e-01 4.905277e-01 4.439829e-01 4.030001e-01 6.446549e-01 6.233702e-01 4.648297e-01 3.829584e-01 1.295612e-01 -8.279952e-03
<VARIANCE> 39
 1.353604e+01 3.467013e+01 1.799737e+01 1.814610e+01 2.108991e+01 2.925402e+01 3.358028e+01 3.038938e+01 5.107093e+01 4.806838e+01 7.498927e+01 8.359086e+01 7.220397e-03 4.772776e-01 5.494139e-01 6.669547e-01 1.302457e+00 1.380647e+00 1.149454e+00 1.426057e+00 1.551641e+00 1.669725e+00 1.991456e+00 3.397957e+00 4.069044e+00 2.260081e-04 1.054304e-01 1.329421e-01 1.415049e-01 2.247790e-01 2.526328e-01 3.151644e-01 2.694584e-01 2.924879e-01 3.442777e-01 4.773045e-01 5.979993e-01 6.774532e-01 1.309680e-04
<GCONST> 7.936132e+01
<MIXTURE> 4 8.780503e-02
<MEAN> 39
 -8.235636e-01 1.407920e+01 -4.617410e-02 -2.413128e+00 -5.763808e+00 -4.922993e+00 -8.838470e+00 7.674208e-01 -2.182788e+00 -2.705452e+00 2.710958e+00 -2.762658e+00 8.158697e-01 -3.359419e-01 8.019624e-01 -1.507999e-01 4.020233e-01 -3.162969e-01 4.314074e-02 -3.623174e-01 -8.507312e-02 -3.750759e-01 -3.614417e-01 1.317407e-01 -2.938498e-01 1.702515e-02 8.851543e-02 -3.134750e-01 6.905069e-02 -1.174847e-01 9.667040e-02 1.032495e-01 2.190908e-01 -7.512513e-03 1.502195e-01 1.645943e-01 -1.268574e-01 1.366685e-01 -2.842290e-03
<VARIANCE> 39
 9.899975e+00 3.177225e+01 1.677288e+01 2.348094e+01 1.990720e+01 2.869905e+01 3.222800e+01 2.836351e+01 3.362371e+01 3.184344e+01 3.253898e+01 2.446339e+01 6.705018e-03 5.330650e-01 8.499605e-01 8.851370e-01 1.376558e+00 1.277049e+00 1.305492e+00 1.527737e+00 1.584731e+00 1.610609e+00 1.602154e+00 1.493296e+00 1.433291e+00 3.901185e-04 7.658220e-02 1.546673e-01 1.665522e-01 2.593251e-01 2.172737e-01 2.576369e-01 2.557772e-01 2.837348e-01 2.671251e-01 2.754186e-01 2.708133e-01 2.422779e-01 7.452799e-05
<GCONST> 7.196027e+01
<MIXTURE> 5 4.891331e-02
<MEAN> 39
 -2.493727e+00 1.030470e+01 -6.477904e+00 -3.892639e+00 -8.126322e+00 -7.841480e+00 -3.581896e+00 -3.633875e+00 -3.829034e+00 -1.352950e+00 -2.791056e+00 2.607224e+00 8.667753e-01 -3.916634e-01 -1.758512e-01 -1.099300e-01 4.362593e-01 -2.376913e-01 -6.797205e-02 -6.888244e-01 -8.903875e-01 -6.413853e-01 -5.248519e-01 -1.103833e-01 5.288678e-01 2.025749e-02 3.305528e-01 1.156834e-01 4.219851e-01 2.961628e-01 4.905277e-01 4.439829e-01 4.030001e-01 6.446549e-01 6.233702e-01 4.648297e-01 3.829584e-01 1.295612e-01 -8.279952e-03
<VARIANCE> 39
 1.353604e+01 3.467013e+01 1.799737e+01 1.814610e+01 2.108991e+01 2.925402e+01 3.358028e+01 3.038938e+01 5.107093e+01 4.806838e+01 7.498927e+01 8.359086e+01 7.220397e-03 4.772776e-01 5.494139e-01 6.669547e-01 1.302457e+00 1.380647e+00 1.149454e+00 1.426057e+00 1.551641e+00 1.669725e+00 1.991456e+00 3.397957e+00 4.069044e+00 2.260081e-04 1.054304e-01 1.329421e-01 1.415049e-01 2.247790e-01 2.526328e-01 3.151644e-01 2.694584e-01 2.924879e-01 3.442777e-01 4.773045e-01 5.979993e-01 6.774532e-01 1.309680e-04
<GCONST> 7.936132e+01
<MIXTURE> 6 8.780865e-02
<MEAN> 39
 -8.239310e-01 1.407935e+01 -4.604442e-02 -2.412672e+00 -5.763977e+00 -4.923084e+00 -8.838544e+00 7.673463e-01 -2.182994e+00 -2.705547e+00 2.710850e+00 -2.762568e+00 8.158951e-01 -3.357763e-01 8.021901e-01 -1.508325e-01 4.021780e-01 -3.162812e-01 4.322441e-02 -3.624738e-01 -8.508685e-02 -3.751909e-01 -3.613892e-01 1.317605e-01 -2.938372e-01 1.702302e-02 8.857468e-02 -3.134478e-01 6.904379e-02 -1.175930e-01 9.665278e-02 1.032222e-01 2.190852e-01 -7.502996e-03 1.502523e-01 1.646127e-01 -1.268244e-01 1.366524e-01 -2.840701e-03
<VARIANCE> 39
 9.898936e+00 3.176366e+01 1.677396e+01 2.347775e+01 1.990663e+01 2.869738e+01 3.223015e+01 2.836607e+01 3.362405e+01 3.184865e+01 3.254116e+01 2.446615e+01 6.694057e-03 5.327955e-01 8.494641e-01 8.851910e-01 1.376451e+00 1.277013e+00 1.305503e+00 1.527700e+00 1.584848e+00 1.610727e+00 1.602406e+00 1.493411e+00 1.433377e+00 3.892259e-04 7.652890e-02 1.546438e-01 1.665705e-01 2.592931e-01 2.172768e-01 2.576559e-01 2.557921e-01 2.837616e-01 2.671589e-01 2.754515e-01 2.708201e-01 2.422976e-01 7.434111e-05
<GCONST> 7.195282e+01
<MIXTURE> 7 8.780865e-02
<MEAN> 39
 -8.239310e-01 1.407935e+01 -4.604442e-02 -2.412672e+00 -5.763977e+00 -4.923084e+00 -8.838544e+00 7.673463e-01 -2.182994e+00 -2.705547e+00 2.710850e+00 -2.762568e+00 8.158951e-01 -3.357763e-01 8.021901e-01 -1.508325e-01 4.021780e-01 -3.162812e-01 4.322441e-02 -3.624738e-01 -8.508685e-02 -3.751909e-01 -3.613892e-01 1.317605e-01 -2.938372e-01 1.702302e-02 8.857468e-02 -3.134478e-01 6.904379e-02 -1.175930e-01 9.665278e-02 1.032222e-01 2.190852e-01 -7.502996e-03 1.502523e-01 1.646127e-01 -1.268244e-01 1.366524e-01 -2.840701e-03
<VARIANCE> 39
 9.898936e+00 3.176366e+01 1.677396e+01 2.347775e+01 1.990663e+01 2.869738e+01 3.223015e+01 2.836607e+01 3.362405e+01 3.184865e+01 3.254116e+01 2.446615e+01 6.694057e-03 5.327955e-01 8.494641e-01 8.851910e-01 1.376451e+00 1.277013e+00 1.305503e+00 1.527700e+00 1.584848e+00 1.610727e+00 1.602406e+00 1.493411e+00 1.433377e+00 3.892259e-04 7.652890e-02 1.546438e-01 1.665705e-01 2.592931e-01 2.172768e-01 2.576559e-01 2.557921e-01 2.837616e-01 2.671589e-01 2.754515e-01 2.708201e-01 2.422976e-01 7.434111e-05
<GCONST> 7.195282e+01
<MIXTURE> 8 7.904123e-02
<MEAN> 39
 1.095331e+00 1.499058e+01 -3.445860e+00 -3.869161e-01 -4.812321e+00 -4.678965e+00 -3.656909e-01 1.475749e+00 -2.282929e+00 2.184783e+00 -4.559785e+00 6.003304e+00 7.956624e-01 -9.229889e-01 -6.403277e-01 -1.031882e+00 -3.855650e-01 -1.154378e+00 -1.390265e+00 -1.892393e+00 -1.680939e+00 -1.197179e+00 -1.503842e+00 -1.153168e+00 -6.851906e-01 3.396055e-02 -7.095928e-02 -3.198281e-01 -1.389265e-01 -1.802386e-01 -1.478885e-01 -2.060362e-01 -2.050987e-01 -2.957139e-01 -1.809007e-01 -2.179801e-01 -1.237733e-01 -2.117932e-01 -3.879601e-03
<VARIANCE> 39
 1.591179e+01 1.476307e+01 1.326971e+01 1.188142e+01 6.961237e+00 8.328332e+00 1.478191e+01 3.086080e+01 1.561735e+01 2.421035e+01 1.102191e+01 1.529832e+01 6.732216e-03 3.677302e-01 3.500082e-01 5.401050e-01 7.978478e-01 9.106661e-01 1.242412e+00 9.288567e-01 1.158957e+00 1.456142e+00 1.147660e+00 1.344281e+00 1.243387e+00 3.297583e-04 8.324840e-02 6.525119e-02 1.113447e-01 1.393220e-01 1.362075e-01 1.480090e-01 1.931129e-01 2.074797e-01 1.464624e-01 1.332558e-01 2.241249e-01 2.335054e-01 5.070094e-05
<GCONST> 5.547803e+01
<MIXTURE> 9 4.891125e-02
<MEAN> 39
 -2.494035e+00 1.030456e+01 -6.477616e+00 -3.892833e+00 -8.126553e+00 -7.842228e+00 -3.582993e+00 -3.634534e+00 -3.830797e+00 -1.354679e+00 -2.793437e+00 2.605513e+00 8.667690e-01 -3.916283e-01 -1.758418e-01 -1.099257e-01 4.363104e-01 -2.376331e-01 -6.788755e-02 -6.888114e-01 -8.903955e-01 -6.414282e-01 -5.250210e-01 -1.106290e-01 5.286410e-01 2.025521e-02 3.305997e-01 1.157189e-01 4.220068e-01 2.961611e-01 4.905570e-01 4.440406e-01 4.030575e-01 6.447018e-01 6.234769e-01 4.649746e-01 3.831082e-01 1.297033e-01 -8.277432e-03
<VARIANCE> 39
 1.353494e+01 3.467002e+01 1.799556e+01 1.814658e+01 2.108736e+01 2.925302e+01 3.357956e+01 3.038515e+01 5.105738e+01 4.805247e+01 7.497108e+01 8.358150e+01 7.221200e-03 4.771908e-01 5.493849e-01 6.668864e-01 1.302412e+00 1.380499e+00 1.149362e+00 1.425944e+00 1.551666e+00 1.669445e+00 1.991360e+00 3.397488e+00 4.068160e+00 2.259830e-04 1.053790e-01 1.329248e-01 1.414908e-01 2.247958e-01 2.526016e-01 3.151567e-01 2.694489e-01 2.924552e-01 3.442065e-01 4.772022e-01 5.979217e-01 6.773704e-01 1.309075e-04
<GCONST> 7.935667e+01
<MIXTURE> 10 8.780865e-02
<MEAN> 39
 -8.239310e-01 1.407935e+01 -4.604442e-02 -2.412672e+00 -5.763977e+00 -4.923084e+00 -8.838544e+00 7.673463e-01 -2.182994e+00 -2.705547e+00 2.710850e+00 -2.762568e+00 8.158951e-01 -3.357763e-01 8.021901e-01 -1.508325e-01 4.021780e-01 -3.162812e-01 4.322441e-02 -3.624738e-01 -8.508685e-02 -3.751909e-01 -3.613892e-01 1.317605e-01 -2.938372e-01 1.702302e-02 8.857468e-02 -3.134478e-01 6.904379e-02 -1.175930e-01 9.665278e-02 1.032222e-01 2.190852e-01 -7.502996e-03 1.502523e-01 1.646127e-01 -1.268244e-01 1.366524e-01 -2.840701e-03
<VARIANCE> 39
 9.898936e+00 3.176366e+01 1.677396e+01 2.347775e+01 1.990663e+01 2.869738e+01 3.223015e+01 2.836607e+01 3.362405e+01 3.184865e+01 3.254116e+01 2.446615e+01 6.694057e-03 5.327955e-01 8.494641e-01 8.851910e-01 1.376451e+00 1.277013e+00 1.305503e+00 1.527700e+00 1.584848e+00 1.610727e+00 1.602406e+00 1.493411e+00 1.433377e+00 3.892259e-04 7.652890e-02 1.546438e-01 1.665705e-01 2.592931e-01 2.172768e-01 2.576559e-01 2.557921e-01 2.837616e-01 2.671589e-01 2.754515e-01 2.708201e-01 2.422976e-01 7.434111e-05
<GCONST> 7.195282e+01
<MIXTURE> 11 8.780713e-02
<MEAN> 39
 -8.242956e-01 1.407953e+01 -4.585877e-02 -2.412182e+00 -5.764118e+00 -4.923085e+00 -8.838730e+00 7.671602e-01 -2.183213e+00 -2.705733e+00 2.710878e+00 -2.762445e+00 8.159199e-01 -3.356245e-01 8.024083e-01 -1.508752e-01 4.023215e-01 -3.162653e-01 4.331755e-02 -3.626356e-01 -8.511145e-02 -3.753243e-01 -3.613800e-01 1.318049e-01 -2.938264e-01 1.702136e-02 8.863504e-02 -3.134100e-01 6.903223e-02 -1.177028e-01 9.662732e-02 1.031838e-01 2.190804e-01 -7.477705e-03 1.502820e-01 1.646302e-01 -1.267882e-01 1.366342e-01 -2.839046e-03
<VARIANCE> 39
 9.897776e+00 3.175438e+01 1.677438e+01 2.347356e+01 1.990591e+01 2.869433e+01 3.223100e+01 2.836724e+01 3.362311e+01 3.185252e+01 3.254206e+01 2.446808e+01 6.682871e-03 5.325240e-01 8.488930e-01 8.851777e-01 1.376232e+00 1.276876e+00 1.305435e+00 1.527547e+00 1.584908e+00 1.610772e+00 1.602510e+00 1.493493e+00 1.433416e+00 3.883088e-04 7.647482e-02 1.546145e-01 1.665801e-01 2.592491e-01 2.172750e-01 2.576523e-01 2.557898e-01 2.837624e-01 2.671815e-01 2.754701e-01 2.708136e-01 2.423044e-01 7.414585e-05
<GCONST> 7.194345e+01
<MIXTURE> 12 6.463009e-02
<MEAN> 39
 -4.937375e-01 1.131224e+01 -4.222268e+00 -1.664178e+00 -6.329063e+00 -6.020748e+00 -1.323099e+00 -1.515816e+00 -2.742777e+00 -1.027232e+00 -5.200913e+00 3.736901e+00 8.360922e-01 -8.073812e-01 -6.350685e-01 -7.243524e-01 -2.536318e-01 -6.563857e-01 -1.037347e+00 -1.422445e+00 -1.411000e+00 -1.311401e+00 -1.267066e+00 -1.089353e+00 -5.023651e-01 2.761399e-02 1.824076e-01 1.070535e-02 2.061624e-01 1.553897e-01 2.404975e-01 1.862874e-01 2.025520e-01 2.370639e-01 2.868487e-01 2.870209e-01 3.779745e-01 1.080072e-01 -7.053620e-03
<VARIANCE> 39
 1.436663e+01 2.702022e+01 1.745920e+01 1.430004e+01 1.381110e+01 1.463132e+01 2.099845e+01 2.398212e+01 1.932088e+01 2.261967e+01 1.820749e+01 1.982617e+01 7.320820e-03 4.502953e-01 4.935833e-01 6.629481e-01 8.199878e-01 9.221536e-01 8.659013e-01 8.759633e-01 1.213197e+00 9.357743e-01 1.402003e+00 2.021318e+00 2.537145e+00 2.596486e-04 9.250198e-02 8.224577e-02 8.558016e-02 1.148589e-01 1.409654e-01 1.508567e-01 2.448983e-01 1.766025e-01 2.358767e-01 2.377015e-01 2.095093e-01 2.272522e-01 4.370258e-05
<GCONST> 6.065719e+01
<MIXTURE> 13 8.780722e-02
<MEAN> 39
 -8.240337e-01 1.407939e+01 -4.598401e-02 -2.412527e+00 -5.764019e+00 -4.923089e+00 -8.838584e+00 7.672818e-01 -2.183026e+00 -2.705609e+00 2.710875e+00 -2.762535e+00 8.159013e-01 -3.357359e-01 8.022484e-01 -1.508434e-01 4.022166e-01 -3.162826e-01 4.325100e-02 -3.625190e-01 -8.508982e-02 -3.752261e-01 -3.613890e-01 1.317734e-01 -2.938380e-01 1.702250e-02 8.859017e-02 -3.134386e-01 6.904064e-02 -1.176249e-01 9.664705e-02 1.032130e-01 2.190831e-01 -7.495173e-03 1.502595e-01 1.646177e-01 -1.268169e-01 1.366478e-01 -2.840229e-03
<VARIANCE> 39
 9.898691e+00 3.176121e+01 1.677407e+01 2.347676e+01 1.990637e+01 2.869671e+01 3.223042e+01 2.836636e+01 3.362389e+01 3.185001e+01 3.254136e+01 2.446677e+01 6.691217e-03 5.327267e-01 8.493208e-01 8.851852e-01 1.376405e+00 1.276969e+00 1.305488e+00 1.527657e+00 1.584864e+00 1.610740e+00 1.602435e+00 1.493430e+00 1.433391e+00 3.889929e-04 7.651558e-02 1.546361e-01 1.665729e-01 2.592819e-01 2.172758e-01 2.576568e-01 2.557917e-01 2.837627e-01 2.671650e-01 2.754574e-01 2.708179e-01 2.422999e-01 7.429101e-05
<GCONST> 7.195050e+01
<MIXTURE> 14 6.463009e-02
<MEAN> 39
 -4.937375e-01 1.131224e+01 -4.222268e+00 -1.664178e+00 -6.329063e+00 -6.020748e+00 -1.323099e+00 -1.515816e+00 -2.742777e+00 -1.027232e+00 -5.200913e+00 3.736901e+00 8.360922e-01 -8.073812e-01 -6.350685e-01 -7.243524e-01 -2.536318e-01 -6.563857e-01 -1.037347e+00 -1.422445e+00 -1.411000e+00 -1.311401e+00 -1.267066e+00 -1.089353e+00 -5.023651e-01 2.761399e-02 1.824076e-01 1.070535e-02 2.061624e-01 1.553897e-01 2.404975e-01 1.862874e-01 2.025520e-01 2.370639e-01 2.868487e-01 2.870209e-01 3.779745e-01 1.080072e-01 -7.053620e-03
<VARIANCE> 39
 1.436663e+01 2.702022e+01 1.745920e+01 1.430004e+01 1.381110e+01 1.463132e+01 2.099845e+01 2.398212e+01 1.932088e+01 2.261967e+01 1.820749e+01 1.982617e+01 7.320820e-03 4.502953e-01 4.935833e-01 6.629481e-01 8.199878e-01 9.221536e-01 8.659013e-01 8.759633e-01 1.213197e+00 9.357743e-01 1.402003e+00 2.021318e+00 2.537145e+00 2.596486e-04 9.250198e-02 8.224577e-02 8.558016e-02 1.148589e-01 1.409654e-01 1.508567e-01 2.448983e-01 1.766025e-01 2.358767e-01 2.377015e-01 2.095093e-01 2.272522e-01 4.370258e-05
<GCONST> 6.065719e+01
<MIXTURE> 15 6.463212e-02
<MEAN> 39
 -4.939510e-01 1.131222e+01 -4.222346e+00 -1.664160e+00 -6.329240e+00 -6.020929e+00 -1.323414e+00 -1.515962e+00 -2.743032e+00 -1.027366e+00 -5.201198e+00 3.736799e+00 8.360955e-01 -8.073688e-01 -6.350873e-01 -7.243828e-01 -2.536553e-01 -6.564189e-01 -1.037378e+00 -1.422475e+00 -1.411037e+00 -1.311389e+00 -1.267063e+00 -1.089349e+00 -5.023769e-01 2.761315e-02 1.824360e-01 1.072716e-02 2.061726e-01 1.553896e-01 2.405085e-01 1.863065e-01 2.025808e-01 2.370845e-01 2.868704e-01 2.870382e-01 3.779866e-01 1.080240e-01 -7.053500e-03
<VARIANCE> 39
 1.436613e+01 2.701956e+01 1.745898e+01 1.429983e+01 1.381111e+01 1.463085e+01 2.099882e+01 2.398209e+01 1.932078e+01 2.261917e+01 1.820681e+01 1.982633e+01 7.320679e-03 4.502690e-01 4.935762e-01 6.629496e-01 8.199728e-01 9.221537e-01 8.659089e-01 8.759275e-01 1.213226e+00 9.357569e-01 1.401994e+00 2.021258e+00 2.537068e+00 2.596326e-04 9.249399e-02 8.224337e-02 8.557725e-02 1.148574e-01 1.409629e-01 1.508565e-01 2.448999e-01 1.766043e-01 2.358648e-01 2.376933e-01 2.095057e-01 2.272506e-01 4.369587e-05
<GCONST> 6.065634e+01
<STATE> 4
<NUMMIXES> 15
<MIXTURE> 1 4.130119e-02
<MEAN> 39
 -4.069894e+00 8.791882e+00 -9.663167e+00 -5.295959e+00 -9.920799e+00 -8.906974e+00 -1.538268e+00 -1.989637e+00 5.879655e+00 7.830809e+00 1.138961e+01 1.641291e+01 9.201365e-01 6.964966e-02 7.827776e-02 -5.014653e-03 3.479243e-01 -1.706746e-01 -1.247184e-01 -3.081916e-01 1.006080e-01 3.211454e-01 1.195238e-01 4.915400e-01 1.720796e-01 1.006161e-02 2.887292e-01 2.580691e-01 3.461643e-01 3.191640e-01 4.783340e-01 3.661613e-01 2.723840e-01 2.088899e-01 -8.547562e-02 -1.890584e-01 -3.923097e-01 -4.398483e-01 -4.270766e-03
<VARIANCE> 39
 1.604309e+01 3.727623e+01 1.231530e+01 1.500238e+01 2.700671e+01 1.362201e+01 2.282138e+01 3.051628e+01 5.633900e+01 6.167606e+01 4.691458e+01 5.605591e+01 4.256648e-03 3.863995e-01 5.882825e-01 8.229487e-01 1.096803e+00 1.404512e+00 9.582518e-01 1.189345e+00 6.761565e-01 5.487824e-01 9.804989e-01 1.652943e+00 1.788439e+00 6.515554e-05 3.354505e-02 9.152552e-02 9.127065e-02 1.500860e-01 2.294742e-01 1.066695e-01 2.245436e-01 1.324708e-01 2.733166e-01 2.454008e-01 3.020324e-01 1.902374e-01 6.712083e-06
<GCONST> 6.086112e+01
<MIXTURE> 2 6.610201e-02
<MEAN> 39
 -1.491990e+00 1.109846e+01 -5.597104e+00 -2.135563e+00 -7.935307e+00 -8.130960e+00 -4.730964e+00 -4.682240e+00 -5.339059e+00 -3.234596e+00 -6.308133e+00 1.526938e+00 8.734052e-01 1.774892e-01 2.559920e-01 2.300691e-01 4.979348e-01 2.311794e-01 3.328484e-01 4.221237e-02 3.612356e-02 1.933729e-01 6.170113e-02 2.996472e-01 3.692848e-01 1.138514e-02 1.751597e-01 1.787398e-01 2.689826e-01 1.258799e-01 3.315577e-01 2.838041e-01 4.078204e-01 5.071487e-01 4.446819e-01 3.526643e-01 3.571208e-01 1.388951e-01 -3.708256e-03
<VARIANCE> 39
 1.247208e+01 2.986732e+01 1.532654e+01 1.535416e+01 1.935937e+01 2.399786e+01 2.173210e+01 2.489409e+01 1.919086e+01 2.213957e+01 2.946943e+01 3.783115e+01 7.953663e-03 2.640054e-01 4.988504e-01 6.078361e-01 7.168225e-01 9.569836e-01 1.037643e+00 1.230021e+00 1.103603e+00 1.038230e+00 1.285748e+00 1.298487e+00 1.502646e+00 8.553572e-05 4.275636e-02 6.357060e-02 7.646035e-02 1.184413e-01 1.404095e-01 1.764371e-01 1.714805e-01 1.684957e-01 1.559625e-01 1.599016e-01 2.525788e-01 2.598327e-01 1.841003e-05
<GCONST> 5.758646e+01
<MIXTURE> 3 6.610851e-02
<MEAN> 39
 -1.492697e+00 1.109858e+01 -5.597389e+00 -2.135862e+00 -7.936459e+00 -8.132171e+00 -4.732106e+00 -4.682731e+00 -5.339674e+00 -3.235223e+00 -6.309183e+00 1.526456e+00 8.734120e-01 1.774614e-01 2.557786e-01 2.298660e-01 4.976921e-01 2.310600e-01 3.326391e-01 4.204507e-02 3.595607e-02 1.933143e-01 6.161315e-02 2.993934e-01 3.688066e-01 1.138445e-02 1.751882e-01 1.787896e-01 2.690355e-01 1.259695e-01 3.316593e-01 2.839591e-01 4.079370e-01 5.071666e-01 4.446816e-01 3.526967e-01 3.571734e-01 1.390212e-01 -3.708523e-03
<VARIANCE> 39
 1.247217e+01 2.986838e+01 1.532526e+01 1.535304e+01 1.935373e+01 2.399315e+01 2.172778e+01 2.489150e+01 1.918803e+01 2.213785e+01 2.945787e+01 3.781849e+01 7.953066e-03 2.639165e-01 4.987012e-01 6.076403e-01 7.166203e-01 9.567013e-01 1.037320e+00 1.229773e+00 1.103374e+00 1.037841e+00 1.285286e+00 1.297988e+00 1.501647e+00 8.551758e-05 4.275315e-02 6.355513e-02 7.645030e-02 1.184188e-01 1.403655e-01 1.764037e-01 1.714470e-01 1.684381e-01 1.559273e-01 1.598791e-01 2.525002e-01 2.596959e-01 1.840211e-05
<GCONST> 5.757697e+01
<MIXTURE> 4 9.420723e-02
<MEAN> 39
 -1.424839e+00 1.508395e+01 4.552659e-01 -1.777564e+00 -5.930584e+00 -4.027911e+00 -9.836440e+00 4.165619e-01 -1.727988e+00 -3.256646e+00 3.364208e+00 -2.610111e+00 8.612002e-01 -7.843027e-02 2.874723e-01 -2.174108e-02 2.224637e-01 7.536702e-02 3.361249e-03 -4.488087e-02 -3.626027e-03 4.279325e-02 -6.570256e-02 -3.693854e-02 -9.531403e-02 9.001392e-03 6.721843e-02 -1.204578e-01 -8.640057e-03 -8.840367e-02 4.701463e-02 -4.232741e-02 8.848570e-02 -2.689237e-03 6.162205e-02 6.813592e-02 -4.807877e-02 3.314225e-02 -2.631387e-03
<VARIANCE> 39
 8.410184e+00 3.409307e+01 1.560130e+01 1.290970e+01 2.402980e+01 2.598507e+01 3.402999e+01 2.753207e+01 3.122517e+01 3.916810e+01 3.044420e+01 2.548123e+01 4.974912e-03 1.938289e-01 3.666581e-01 4.784116e-01 5.265747e-01 5.879585e-01 7.156061e-01 8.833854e-01 9.433361e-01 1.040664e+00 8.466409e-01 8.608410e-01 7.899063e-01 8.108706e-05 4.043000e-02 5.368221e-02 7.304785e-02 9.029647e-02 1.146857e-01 1.286129e-01 1.573961e-01 1.704016e-01 1.871532e-01 1.509825e-01 1.382135e-01 1.390639e-01 1.203077e-05
<GCONST> 5.154146e+01
<MIXTURE> 5 6.610851e-02
<MEAN> 39
 -1.492697e+00 1.109858e+01 -5.597389e+00 -2.135862e+00 -7.936459e+00 -8.132171e+00 -4.732106e+00 -4.682731e+00 -5.339674e+00 -3.235223e+00 -6.309183e+00 1.526456e+00 8.734120e-01 1.774614e-01 2.557786e-01 2.298660e-01 4.976921e-01 2.310600e-01 3.326391e-01 4.204507e-02 3.595607e-02 1.933143e-01 6.161315e-02 2.993934e-01 3.688066e-01 1.138445e-02 1.751882e-01 1.787896e-01 2.690355e-01 1.259695e-01 3.316593e-01 2.839591e-01 4.079370e-01 5.071666e-01 4.446816e-01 3.526967e-01 3.571734e-01 1.390212e-01 -3.708523e-03
<VARIANCE> 39
 1.247217e+01 2.986838e+01 1.532526e+01 1.535304e+01 1.935373e+01 2.399315e+01 2.172778e+01 2.489150e+01 1.918803e+01 2.213785e+01 2.945787e+01 3.781849e+01 7.953066e-03 2.639165e-01 4.987012e-01 6.076403e-01 7.166203e-01 9.567013e-01 1.037320e+00 1.229773e+00 1.103374e+00 1.037841e+00 1.285286e+00 1.297988e+00 1.501647e+00 8.551758e-05 4.275315e-02 6.355513e-02 7.645030e-02 1.184188e-01 1.403655e-01 1.764037e-01 1.714470e-01 1.684381e-01 1.559273e-01 1.598791e-01 2.525002e-01 2.596959e-01 1.840211e-05
<GCONST> 5.757697e+01
<MIXTURE> 6 9.420375e-02
<MEAN> 39
 -1.424837e+00 1.508391e+01 4.553194e-01 -1.777527e+00 -5.930611e+00 -4.027880e+00 -9.836432e+00 4.165480e-01 -1.727959e+00 -3.256618e+00 3.364147e+00 -2.610103e+00 8.612003e-01 -7.842475e-02 2.874731e-01 -2.173979e-02 2.224625e-01 7.536934e-02 3.354933e-03 -4.486966e-02 -3.626223e-03 4.279985e-02 -6.569496e-02 -3.693683e-02 -9.530722e-02 9.001282e-03 6.721672e-02 -1.204565e-01 -8.642083e-03 -8.840422e-02 4.701402e-02 -4.232884e-02 8.848615e-02 -2.690207e-03 6.162146e-02 6.813491e-02 -4.807775e-02 3.313940e-02 -2.631361e-03
<VARIANCE> 39
 8.410234e+00 3.409350e+01 1.560191e+01 1.290963e+01 2.403003e+01 2.598554e+01 3.403061e+01 2.753234e+01 3.122526e+01 3.916812e+01 3.044434e+01 2.548145e+01 4.974915e-03 1.938273e-01 3.666649e-01 4.784267e-01 5.265868e-01 5.879754e-01 7.156235e-01 8.834164e-01 9.433613e-01 1.040686e+00 8.466641e-01 8.608506e-01 7.899145e-01 8.108629e-05 4.042995e-02 5.368264e-02 7.304880e-02 9.029778e-02 1.146883e-01 1.286165e-01 1.574011e-01 1.704044e-01 1.871575e-01 1.509849e-01 1.382156e-01 1.390642e-01 1.203067e-05
<GCONST> 5.154203e+01
<MIXTURE> 7 9.420572e-02
<MEAN> 39
 -1.424846e+00 1.508397e+01 4.553131e-01 -1.777545e+00 -5.930644e+00 -4.027889e+00 -9.836513e+00 4.165620e-01 -1.727959e+00 -3.256662e+00 3.364209e+00 -2.610170e+00 8.611999e-01 -7.842846e-02 2.874709e-01 -2.174157e-02 2.224591e-01 7.536647e-02 3.357883e-03 -4.487652e-02 -3.628150e-03 4.279500e-02 -6.570063e-02 -3.693940e-02 -9.531623e-02 9.001286e-03 6.721773e-02 -1.204571e-01 -8.639954e-03 -8.840346e-02 4.701667e-02 -4.232761e-02 8.848736e-02 -2.689935e-03 6.162200e-02 6.813622e-02 -4.807787e-02 3.314348e-02 -2.631356e-03
<VARIANCE> 39
 8.410187e+00 3.409309e+01 1.560161e+01 1.290970e+01 2.402996e+01 2.598540e+01 3.403015e+01 2.753229e+01 3.122519e+01 3.916781e+01 3.044404e+01 2.548104e+01 4.974900e-03 1.938276e-01 3.666618e-01 4.784172e-01 5.265819e-01 5.879664e-01 7.156158e-01 8.834041e-01 9.433514e-01 1.040679e+00 8.466514e-01 8.608440e-01 7.899079e-01 8.108671e-05 4.042973e-02 5.368251e-02 7.304839e-02 9.029726e-02 1.146864e-01 1.286151e-01 1.573989e-01 1.704039e-01 1.871562e-01 1.509834e-01 1.382140e-01 1.390636e-01 1.203069e-05
<GCONST> 5.154172e+01
<MIXTURE> 8 4.798314e-02
<MEAN> 39
 -2.348386e+00 1.329230e+01 -4.006286e+00 -7.322848e-01 -6.529946e+00 -8.539939e+00 -2.814143e+00 -2.289825e+00 -1.598822e+00 -2.907809e+00 -5.088492e+00 3.359094e+00 8.845009e-01 -3.433903e-01 -6.030644e-01 -7.944183e-01 -5.522113e-01 -1.028364e+00 -1.228319e+00 -1.194784e+00 -1.122633e+00 -7.893952e-01 -2.654857e-01 -5.828746e-01 -6.820496e-01 1.303605e-02 5.177426e-02 -1.038487e-01 -5.536210e-02 -1.684818e-01 4.633338e-02 5.584921e-02 1.122043e-01 -5.453889e-02 -4.728589e-02 -8.991171e-02 -3.170832e-02 -7.601456e-02 -3.676232e-03
<VARIANCE> 39
 6.604455e+00 4.457931e+01 9.096257e+00 1.276567e+01 1.786072e+01 2.468296e+01 1.600068e+01 2.086393e+01 1.264695e+01 2.464342e+01 1.522782e+01 1.893455e+01 5.420994e-03 1.263269e-01 2.040065e-01 2.069962e-01 5.780010e-01 4.459334e-01 5.286006e-01 4.986276e-01 4.031872e-01 6.396607e-01 5.051439e-01 7.738906e-01 7.200723e-01 4.784252e-05 1.848510e-02 5.126614e-02 4.830813e-02 1.262529e-01 1.327931e-01 1.491211e-01 9.884287e-02 1.030573e-01 1.183002e-01 1.112767e-01 9.041230e-02 1.312245e-01 9.386095e-06
<GCONST> 3.880109e+01
<MIXTURE> 9 6.610174e-02
<MEAN> 39
 -1.492070e+00 1.109852e+01 -5.596938e+00 -2.135544e+00 -7.935332e+00 -8.130971e+00 -4.730930e+00 -4.682058e+00 -5.339071e+00 -3.234607e+00 -6.308239e+00 1.526879e+00 8.734062e-01 1.775207e-01 2.560103e-01 2.300975e-01 4.979654e-01 2.312314e-01 3.328873e-01 4.224325e-02 3.617415e-02 1.934386e-01 6.175907e-02 2.996417e-01 3.692529e-01 1.138511e-02 1.751557e-01 1.787332e-01 2.689760e-01 1.258779e-01 3.315574e-01 2.838026e-01 4.078128e-01 5.071253e-01 4.446651e-01 3.526624e-01 3.571198e-01 1.388974e-01 -3.708251e-03
<VARIANCE> 39
 1.247181e+01 2.986828e+01 1.532561e+01 1.535421e+01 1.935838e+01 2.399671e+01 2.173094e+01 2.489265e+01 1.919014e+01 2.213914e+01 2.946742e+01 3.782957e+01 7.953686e-03 2.639877e-01 4.988305e-01 6.077769e-01 7.168090e-01 9.569393e-01 1.037609e+00 1.229977e+00 1.103535e+00 1.038149e+00 1.285697e+00 1.298445e+00 1.502486e+00 8.553534e-05 4.275605e-02 6.356671e-02 7.645928e-02 1.184392e-01 1.404034e-01 1.764319e-01 1.714721e-01 1.684800e-01 1.559557e-01 1.598975e-01 2.525751e-01 2.598192e-01 1.840984e-05
<GCONST> 5.758493e+01
<MIXTURE> 10 9.420595e-02
<MEAN> 39
 -1.424819e+00 1.508379e+01 4.552991e-01 -1.777517e+00 -5.930550e+00 -4.027870e+00 -9.836360e+00 4.165385e-01 -1.727993e+00 -3.256598e+00 3.364103e+00 -2.610057e+00 8.612012e-01 -7.842192e-02 2.874725e-01 -2.174010e-02 2.224651e-01 7.537305e-02 3.354345e-03 -4.486739e-02 -3.628958e-03 4.279703e-02 -6.569197e-02 -3.693758e-02 -9.530021e-02 9.001277e-03 6.721538e-02 -1.204550e-01 -8.642389e-03 -8.840410e-02 4.701268e-02 -4.232920e-02 8.848522e-02 -2.688282e-03 6.162386e-02 6.813478e-02 -4.807745e-02 3.313694e-02 -2.631370e-03
<VARIANCE> 39
 8.410221e+00 3.409391e+01 1.560173e+01 1.290970e+01 2.403006e+01 2.598573e+01 3.403069e+01 2.753235e+01 3.122534e+01 3.916796e+01 3.044458e+01 2.548154e+01 4.974922e-03 1.938261e-01 3.666705e-01 4.784308e-01 5.265923e-01 5.879850e-01 7.156276e-01 8.834208e-01 9.433761e-01 1.040693e+00 8.466704e-01 8.608552e-01 7.899227e-01 8.108577e-05 4.042938e-02 5.368295e-02 7.304873e-02 9.029842e-02 1.146892e-01 1.286182e-01 1.574014e-01 1.704058e-01 1.871587e-01 1.509850e-01 1.382167e-01 1.390656e-01 1.203069e-05
<GCONST> 5.154223e+01
<MIXTURE> 11 9.420554e-02
<MEAN> 39
 -1.424863e+00 1.508397e+01 4.553707e-01 -1.777531e+00 -5.930655e+00 -4.027883e+00 -9.836491e+00 4.164944e-01 -1.727874e+00 -3.256692e+00 3.364216e+00 -2.610168e+00 8.612000e-01 -7.842445e-02 2.874773e-01 -2.174059e-02 2.224588e-01 7.536465e-02 3.353974e-03 -4.486831e-02 -3.624830e-03 4.280103e-02 -6.569535e-02 -3.693413e-02 -9.531227e-02 9.001192e-03 6.721701e-02 -1.204577e-01 -8.641325e-03 -8.840466e-02 4.701644e-02 -4.232862e-02 8.848654e-02 -2.690389e-03 6.162023e-02 6.813759e-02 -4.808027e-02 3.314216e-02 -2.631325e-03
<VARIANCE> 39
 8.410279e+00 3.409314e+01 1.560230e+01 1.290967e+01 2.403003e+01 2.598571e+01 3.403053e+01 2.753252e+01 3.122532e+01 3.916860e+01 3.044411e+01 2.548122e+01 4.974890e-03 1.938274e-01 3.666668e-01 4.784307e-01 5.265942e-01 5.879775e-01 7.156277e-01 8.834304e-01 9.433618e-01 1.040693e+00 8.466715e-01 8.608534e-01 7.899177e-01 8.108629e-05 4.042995e-02 5.368284e-02 7.304952e-02 9.029872e-02 1.146885e-01 1.286182e-01 1.574024e-01 1.704058e-01 1.871589e-01 1.509864e-01 1.382151e-01 1.390639e-01 1.203061e-05
<GCONST> 5.154222e+01
<MIXTURE> 12 2.738613e-02
<MEAN> 39
 1.322100e-01 1.484034e+01 -2.350676e+00 -1.447973e-01 -5.909627e+00 -7.964044e+00 -3.178303e+00 2.805611e-01 -5.351774e-01 -2.640868e-01 -3.545173e+00 1.975052e+00 8.505490e-01 4.792285e-02 4.035560e-01 -3.059590e-03 4.358668e-01 5.436861e-02 -4.902197e-02 -1.687924e-01 -2.156686e-01 7.116176e-02 4.309218e-01 -3.068517e-01 1.579354e-02 1.348170e-02 -4.381261e-02 -3.359197e-01 -2.339446e-01 -3.330543e-01 -1.625024e-01 -7.556862e-03 -3.505271e-02 -2.683474e-01 -2.733349e-01 -2.267758e-01 3.842157e-02 -9.845656e-02 -4.041647e-03
<VARIANCE> 39
 1.037993e+01 3.233879e+01 1.391988e+01 2.701927e+01 2.606822e+01 2.857700e+01 2.555687e+01 3.285718e+01 2.506496e+01 2.646190e+01 4.577197e+01 5.418320e+01 7.339993e-03 2.590010e-01 5.985938e-01 5.721791e-01 8.731886e-01 1.088666e+00 8.089004e-01 1.211059e+00 1.115023e+00 1.042943e+00 1.375650e+00 1.174073e+00 2.502064e+00 1.474528e-04 6.329145e-02 8.450797e-02 1.972978e-01 2.427569e-01 2.534013e-01 3.638133e-01 2.395552e-01 2.287020e-01 2.884193e-01 2.550996e-01 2.493162e-01 3.365188e-01 5.211543e-05
<GCONST> 6.789273e+01
<MIXTURE> 13 9.420741e-02
<MEAN> 39
 -1.424863e+00 1.508399e+01 4.552967e-01 -1.777575e+00 -5.930634e+00 -4.027895e+00 -9.836507e+00 4.165532e-01 -1.727959e+00 -3.256705e+00 3.364251e+00 -2.610184e+00 8.612000e-01 -7.843151e-02 2.874710e-01 -2.174279e-02 2.224592e-01 7.536493e-02 3.360752e-03 -4.488001e-02 -3.629056e-03 4.279051e-02 -6.570550e-02 -3.693875e-02 -9.531789e-02 9.001376e-03 6.721956e-02 -1.204580e-01 -8.638532e-03 -8.840253e-02 4.701757e-02 -4.232718e-02 8.848699e-02 -2.689198e-03 6.162340e-02 6.813877e-02 -4.807930e-02 3.314516e-02 -2.631379e-03
<VARIANCE> 39
 8.410180e+00 3.409296e+01 1.560142e+01 1.290974e+01 2.402981e+01 2.598518e+01 3.402987e+01 2.753224e+01 3.122518e+01 3.916807e+01 3.044389e+01 2.548094e+01 4.974887e-03 1.938296e-01 3.666606e-01 4.784145e-01 5.265802e-01 5.879616e-01 7.156083e-01 8.833995e-01 9.433427e-01 1.040675e+00 8.466469e-01 8.608458e-01 7.899081e-01 8.108731e-05 4.043026e-02 5.368247e-02 7.304800e-02 9.029692e-02 1.146858e-01 1.286140e-01 1.573971e-01 1.704032e-01 1.871543e-01 1.509831e-01 1.382132e-01 1.390639e-01 1.203079e-05
<GCONST> 5.154162e+01
<MIXTURE> 14 2.738613e-02
<MEAN> 39
 1.322100e-01 1.484034e+01 -2.350676e+00 -1.447973e-01 -5.909627e+00 -7.964044e+00 -3.178303e+00 2.805611e-01 -5.351774e-01 -2.640868e-01 -3.545173e+00 1.975052e+00 8.505490e-01 4.792285e-02 4.035560e-01 -3.059590e-03 4.358668e-01 5.436861e-02 -4.902197e-02 -1.687924e-01 -2.156686e-01 7.116176e-02 4.309218e-01 -3.068517e-01 1.579354e-02 1.348170e-02 -4.381261e-02 -3.359197e-01 -2.339446e-01 -3.330543e-01 -1.625024e-01 -7.556862e-03 -3.505271e-02 -2.683474e-01 -2.733349e-01 -2.267758e-01 3.842157e-02 -9.845656e-02 -4.041647e-03
<VARIANCE> 39
 1.037993e+01 3.233879e+01 1.391988e+01 2.701927e+01 2.606822e+01 2.857700e+01 2.555687e+01 3.285718e+01 2.506496e+01 2.646190e+01 4.577197e+01 5.418320e+01 7.339993e-03 2.590010e-01 5.985938e-01 5.721791e-01 8.731886e-01 1.088666e+00 8.089004e-01 1.211059e+00 1.115023e+00 1.042943e+00 1.375650e+00 1.174073e+00 2.502064e+00 1.474528e-04 6.329145e-02 8.450797e-02 1.972978e-01 2.427569e-01 2.534013e-01 3.638133e-01 2.395552e-01 2.287020e-01 2.884193e-01 2.550996e-01 2.493162e-01 3.365188e-01 5.211543e-05
<GCONST> 6.789273e+01
<MIXTURE> 15 2.628610e-02
<MEAN> 39
 2.105791e-01 1.441616e+01 -2.289461e+00 -9.430631e-01 -5.862483e+00 -7.734630e+00 -3.307559e+00 -3.021261e-02 -6.311249e-02 -7.787345e-02 -2.881397e+00 1.381093e+00 8.285517e-01 -1.286666e-01 2.426279e-01 5.667062e-02 4.104449e-01 1.390776e-03 -1.926706e-02 -8.238067e-02 -2.612877e-01 1.023931e-01 3.572121e-01 -3.593004e-01 -3.026361e-02 1.427543e-02 -6.406198e-02 -3.090720e-01 -1.762687e-01 -2.264136e-01 -7.568904e-02 3.127963e-02 -2.646646e-02 -2.085722e-01 -2.532602e-01 -1.917561e-01 1.120073e-02 -8.190031e-02 -4.212461e-03
<VARIANCE> 39
 1.095698e+01 3.855093e+01 1.491644e+01 3.266581e+01 2.707524e+01 3.422449e+01 2.745318e+01 3.227330e+01 2.861240e+01 2.535673e+01 4.453408e+01 5.445911e+01 1.915547e-02 7.085291e-01 1.156182e+00 6.362786e-01 9.459625e-01 1.176705e+00 9.041772e-01 1.446623e+00 1.156915e+00 1.104409e+00 1.388467e+00 1.372292e+00 3.163918e+00 3.412747e-04 8.048756e-02 9.472533e-02 2.288716e-01 3.270561e-01 2.957846e-01 3.714869e-01 2.499052e-01 2.512308e-01 3.078222e-01 2.449029e-01 2.542204e-01 3.235645e-01 1.979375e-04
<GCONST> 7.568287e+01
<STATE> 5
<NUMMIXES> 15
<MIXTURE> 1 8.433498e-02
<MEAN> 39
 -6.351548e-01 1.335391e+01 -2.760359e+00 -1.560203e+00 -6.144063e+00 -4.714684e+00 -3.980871e+00 -7.028773e-01 -5.706311e-01 -1.135714e+00 1.532150e+00 1.831495e+00 8.785552e-01 1.708089e-01 2.716449e-01 3.010595e-01 4.281452e-01 2.999793e-01 4.199795e-01 4.094588e-01 1.727081e-01 4.349812e-01 2.340880e-01 4.158069e-01 2.549058e-01 7.056856e-03 6.017428e-03 -1.319504e-01 1.236226e-03 -1.435195e-01 4.864288e-02 -5.720713e-02 2.203084e-03 3.542970e-03 3.174552e-02 3.599472e-02 -5.487960e-02 -1.295252e-01 -2.824627e-03
<VARIANCE> 39
 1.413232e+01 3.645036e+01 3.312031e+01 2.303409e+01 2.611367e+01 3.173646e+01 4.850542e+01 3.040550e+01 4.969920e+01 6.181131e+01 6.710067e+01 8.201944e+01 7.372167e-03 4.267803e-01 8.653079e-01 7.926269e-01 1.158176e+00 1.301916e+00 1.668802e+00 1.919984e+00 1.736152e+00 1.395493e+00 1.645227e+00 1.662451e+00 2.166272e+00 8.558558e-05 4.588499e-02 1.048078e-01 1.676209e-01 1.824027e-01 2.719070e-01 2.522113e-01 2.667500e-01 2.389605e-01 2.792522e-01 2.971820e-01 3.209395e-01 2.731110e-01 2.360943e-05
<GCONST> 7.411801e+01
<MIXTURE> 2 4.755128e-02
<MEAN> 39
 -1.130102e+00 1.162605e+01 -4.354916e+00 -1.043240e+00 -5.798352e+00 -6.461518e+00 -4.049500e+00 -2.222018e+00 -3.551826e+00 -1.677831e+00 -3.928606e+00 2.136641e+00 8.895472e-01 2.593185e-01 3.678730e-01 3.780017e-01 4.827882e-01 5.377392e-01 4.910887e-01 5.593443e-01 5.080831e-01 4.931253e-01 3.927754e-01 3.860926e-01 3.053835e-01 9.993063e-04 -6.806198e-03 -1.989367e-02 8.491427e-03 -3.472045e-02 3.970985e-03 -1.497814e-02 4.034850e-02 1.977080e-02 3.179854e-02 1.970789e-02 2.534575e-02 -3.660747e-02 -1.510532e-03
<VARIANCE> 39
 1.311276e+01 3.275815e+01 1.417721e+01 1.469628e+01 1.597931e+01 2.501744e+01 1.926101e+01 3.080336e+01 1.945412e+01 2.099738e+01 3.270852e+01 3.927070e+01 8.589007e-03 9.576505e-02 1.332480e-01 2.205580e-01 3.600962e-01 3.695308e-01 4.587871e-01 4.765402e-01 4.397323e-01 4.025019e-01 4.674392e-01 4.938797e-01 4.052855e-01 3.754082e-05 1.664402e-02 3.591402e-02 5.375325e-02 6.682020e-02 7.386872e-02 9.617947e-02 9.287032e-02 1.034847e-01 9.313205e-02 8.405001e-02 1.007513e-01 8.385688e-02 3.730629e-06
<GCONST> 3.540186e+01
<MIXTURE> 3 4.755173e-02
<MEAN> 39
 -1.130180e+00 1.162587e+01 -4.354741e+00 -1.043147e+00 -5.798210e+00 -6.461366e+00 -4.049462e+00 -2.221955e+00 -3.551801e+00 -1.677678e+00 -3.928386e+00 2.136858e+00 8.895527e-01 2.593162e-01 3.678715e-01 3.780002e-01 4.827901e-01 5.377335e-01 4.910815e-01 5.593336e-01 5.080709e-01 4.931124e-01 3.927651e-01 3.860812e-01 3.053776e-01 9.993908e-04 -6.808784e-03 -1.989808e-02 8.485043e-03 -3.472934e-02 3.965139e-03 -1.498572e-02 4.034015e-02 1.976441e-02 3.179493e-02 1.970222e-02 2.534008e-02 -3.661525e-02 -1.510563e-03
<VARIANCE> 39
 1.311291e+01 3.275877e+01 1.417715e+01 1.469609e+01 1.597925e+01 2.501746e+01 1.926117e+01 3.080336e+01 1.945424e+01 2.099729e+01 3.270959e+01 3.927221e+01 8.588223e-03 9.576760e-02 1.332488e-01 2.205608e-01 3.601018e-01 3.695337e-01 4.587922e-01 4.765472e-01 4.397371e-01 4.025043e-01 4.674448e-01 4.938859e-01 4.052951e-01 3.754082e-05 1.664417e-02 3.591438e-02 5.375339e-02 6.681898e-02 7.386854e-02 9.617865e-02 9.287036e-02 1.034844e-01 9.313149e-02 8.405103e-02 1.007513e-01 8.385589e-02 3.730629e-06
<GCONST> 3.540202e+01
<MIXTURE> 4 8.099438e-02
<MEAN> 39
 -1.848735e+00 1.264705e+01 -6.913417e-01 -1.693503e+00 -3.767003e+00 -4.304019e+00 -6.246110e+00 -2.044253e-01 -1.393596e+00 -2.783613e+00 2.255527e+00 -8.955238e-01 8.938068e-01 1.724289e-02 3.491418e-02 -1.136850e-02 -4.341103e-02 7.169078e-02 -4.060744e-02 7.451459e-02 -1.980651e-02 6.156347e-02 -1.470251e-02 -8.628730e-03 -3.361782e-03 3.754578e-05 5.325609e-03 -3.076600e-02 3.137623e-03 -4.051309e-02 -6.865333e-03 -3.263199e-02 8.127862e-03 -3.289829e-04 4.692001e-03 1.887950e-02 -1.232625e-02 2.705015e-03 -9.727033e-04
<VARIANCE> 39
 7.888394e+00 5.224691e+01 1.000504e+01 1.008518e+01 1.269847e+01 1.799308e+01 2.989112e+01 1.547767e+01 1.943812e+01 2.827077e+01 3.139312e+01 2.612950e+01 6.552062e-03 6.282879e-02 9.483149e-02 1.272958e-01 1.674335e-01 1.852203e-01 2.154142e-01 2.327707e-01 2.523490e-01 2.576816e-01 2.604270e-01 1.982043e-01 2.313083e-01 3.754082e-05 9.090949e-03 1.695490e-02 2.173328e-02 2.771546e-02 3.480743e-02 3.547329e-02 3.904227e-02 3.971168e-02 4.782535e-02 4.301536e-02 3.293050e-02 4.605515e-02 3.730629e-06
<GCONST> 1.633536e+01
<MIXTURE> 5 4.755173e-02
<MEAN> 39
 -1.130180e+00 1.162587e+01 -4.354741e+00 -1.043147e+00 -5.798210e+00 -6.461366e+00 -4.049462e+00 -2.221955e+00 -3.551801e+00 -1.677678e+00 -3.928386e+00 2.136858e+00 8.895527e-01 2.593162e-01 3.678715e-01 3.780002e-01 4.827901e-01 5.377335e-01 4.910815e-01 5.593336e-01 5.080709e-01 4.931124e-01 3.927651e-01 3.860812e-01 3.053776e-01 9.993908e-04 -6.808784e-03 -1.989808e-02 8.485043e-03 -3.472934e-02 3.965139e-03 -1.498572e-02 4.034015e-02 1.976441e-02 3.179493e-02 1.970222e-02 2.534008e-02 -3.661525e-02 -1.510563e-03
<VARIANCE> 39
 1.311291e+01 3.275877e+01 1.417715e+01 1.469609e+01 1.597925e+01 2.501746e+01 1.926117e+01 3.080336e+01 1.945424e+01 2.099729e+01 3.270959e+01 3.927221e+01 8.588223e-03 9.576760e-02 1.332488e-01 2.205608e-01 3.601018e-01 3.695337e-01 4.587922e-01 4.765472e-01 4.397371e-01 4.025043e-01 4.674448e-01 4.938859e-01 4.052951e-01 3.754082e-05 1.664417e-02 3.591438e-02 5.375339e-02 6.681898e-02 7.386854e-02 9.617865e-02 9.287036e-02 1.034844e-01 9.313149e-02 8.405103e-02 1.007513e-01 8.385589e-02 3.730629e-06
<GCONST> 3.540202e+01
<MIXTURE> 6 8.099417e-02
<MEAN> 39
 -1.848705e+00 1.264705e+01 -6.913582e-01 -1.693490e+00 -3.766995e+00 -4.304010e+00 -6.246116e+00 -2.044087e-01 -1.393619e+00 -2.783596e+00 2.255501e+00 -8.955395e-01 8.938064e-01 1.724347e-02 3.491473e-02 -1.136809e-02 -4.341071e-02 7.169113e-02 -4.060698e-02 7.451532e-02 -1.980730e-02 6.156487e-02 -1.470345e-02 -8.628519e-03 -3.362004e-03 3.754360e-05 5.325367e-03 -3.076612e-02 3.137679e-03 -4.051337e-02 -6.865592e-03 -3.263255e-02 8.127725e-03 -3.292549e-04 4.692226e-03 1.887934e-02 -1.232634e-02 2.704777e-03 -9.727026e-04
<VARIANCE> 39
 7.888301e+00 5.224689e+01 1.000499e+01 1.008523e+01 1.269844e+01 1.799307e+01 2.989107e+01 1.547764e+01 1.943806e+01 2.827049e+01 3.139312e+01 2.612918e+01 6.552095e-03 6.282885e-02 9.483160e-02 1.272960e-01 1.674340e-01 1.852208e-01 2.154153e-01 2.327717e-01 2.523495e-01 2.576825e-01 2.604279e-01 1.982047e-01 2.313089e-01 3.754082e-05 9.090940e-03 1.695483e-02 2.173329e-02 2.771555e-02 3.480750e-02 3.547341e-02 3.904244e-02 3.971175e-02 4.782549e-02 4.301545e-02 3.293053e-02 4.605520e-02 3.730629e-06
<GCONST> 1.633541e+01
<MIXTURE> 7 8.099250e-02
<MEAN> 39
 -1.848702e+00 1.264715e+01 -6.913199e-01 -1.693488e+00 -3.767057e+00 -4.303991e+00 -6.246209e+00 -2.044161e-01 -1.393584e+00 -2.783669e+00 2.255542e+00 -8.956265e-01 8.938054e-01 1.724224e-02 3.491630e-02 -1.136852e-02 -4.340982e-02 7.169364e-02 -4.060902e-02 7.451583e-02 -1.980714e-02 6.156477e-02 -1.470275e-02 -8.628632e-03 -3.363131e-03 3.757040e-05 5.325098e-03 -3.076711e-02 3.137287e-03 -4.051404e-02 -6.865446e-03 -3.263389e-02 8.128729e-03 -3.301265e-04 4.691375e-03 1.888009e-02 -1.232661e-02 2.705982e-03 -9.727073e-04
<VARIANCE> 39
 7.888471e+00 5.224688e+01 1.000520e+01 1.008542e+01 1.269878e+01 1.799330e+01 2.989146e+01 1.547803e+01 1.943819e+01 2.827124e+01 3.139318e+01 2.612927e+01 6.552186e-03 6.283023e-02 9.483305e-02 1.272989e-01 1.674371e-01 1.852240e-01 2.154205e-01 2.327768e-01 2.523561e-01 2.576879e-01 2.604325e-01 1.982093e-01 2.313143e-01 3.754082e-05 9.091170e-03 1.695517e-02 2.173375e-02 2.771623e-02 3.480826e-02 3.547430e-02 3.904332e-02 3.971281e-02 4.782685e-02 4.301634e-02 3.293131e-02 4.605634e-02 3.730629e-06
<GCONST> 1.633612e+01
<MIXTURE> 8 8.071106e-02
<MEAN> 39
 -1.417029e+00 1.033789e+01 -2.150683e+00 6.831109e-02 -3.263080e+00 -3.381719e+00 -8.825151e-01 2.842548e-01 -1.398996e+00 -2.084775e-01 -2.129240e+00 3.809289e+00 9.046559e-01 -1.536043e-02 -2.380437e-01 -3.123068e-01 -1.828768e-01 -2.405114e-01 -2.229171e-01 -2.566915e-01 -3.537461e-01 -2.239785e-01 -2.769921e-01 -2.234638e-01 -1.713579e-01 1.069400e-03 -1.078937e-01 -1.923715e-01 -2.330459e-01 -2.766867e-01 -2.891650e-01 -2.825906e-01 -2.806714e-01 -2.831448e-01 -1.963179e-01 -1.975663e-01 -2.050322e-01 -2.503673e-01 -1.341411e-03
<VARIANCE> 39
 1.073767e+01 4.018234e+01 8.114408e+00 1.072805e+01 1.364672e+01 1.633812e+01 1.325342e+01 2.173065e+01 1.614072e+01 1.518325e+01 2.733425e+01 4.109594e+01 8.151867e-03 7.904644e-02 1.536586e-01 2.157388e-01 2.882262e-01 2.788029e-01 3.860915e-01 4.599604e-01 4.175546e-01 3.933171e-01 4.797342e-01 5.141507e-01 5.402324e-01 3.754082e-05 1.477477e-02 3.250868e-02 3.547042e-02 4.838790e-02 5.996670e-02 5.867158e-02 7.594316e-02 6.477217e-02 6.243246e-02 6.436267e-02 7.447263e-02 6.578787e-02 4.919189e-06
<GCONST> 2.875995e+01
<MIXTURE> 9 4.755173e-02
<MEAN> 39
 -1.130180e+00 1.162587e+01 -4.354741e+00 -1.043147e+00 -5.798210e+00 -6.461366e+00 -4.049462e+00 -2.221955e+00 -3.551801e+00 -1.677678e+00 -3.928386e+00 2.136858e+00 8.895527e-01 2.593162e-01 3.678715e-01 3.780002e-01 4.827901e-01 5.377335e-01 4.910815e-01 5.593336e-01 5.080709e-01 4.931124e-01 3.927651e-01 3.860812e-01 3.053776e-01 9.993908e-04 -6.808784e-03 -1.989808e-02 8.485043e-03 -3.472934e-02 3.965139e-03 -1.498572e-02 4.034015e-02 1.976441e-02 3.179493e-02 1.970222e-02 2.534008e-02 -3.661525e-02 -1.510563e-03
<VARIANCE> 39
 1.311291e+01 3.275877e+01 1.417715e+01 1.469609e+01 1.597925e+01 2.501746e+01 1.926117e+01 3.080336e+01 1.945424e+01 2.099729e+01 3.270959e+01 3.927221e+01 8.588223e-03 9.576760e-02 1.332488e-01 2.205608e-01 3.601018e-01 3.695337e-01 4.587922e-01 4.765472e-01 4.397371e-01 4.025043e-01 4.674448e-01 4.938859e-01 4.052951e-01 3.754082e-05 1.664417e-02 3.591438e-02 5.375339e-02 6.681898e-02 7.386854e-02 9.617865e-02 9.287036e-02 1.034844e-01 9.313149e-02 8.405103e-02 1.007513e-01 8.385589e-02 3.730629e-06
<GCONST> 3.540202e+01
<MIXTURE> 10 8.099250e-02
<MEAN> 39
 -1.848702e+00 1.264715e+01 -6.913199e-01 -1.693488e+00 -3.767057e+00 -4.303991e+00 -6.246209e+00 -2.044161e-01 -1.393584e+00 -2.783669e+00 2.255542e+00 -8.956265e-01 8.938054e-01 1.724224e-02 3.491630e-02 -1.136852e-02 -4.340982e-02 7.169364e-02 -4.060902e-02 7.451583e-02 -1.980714e-02 6.156477e-02 -1.470275e-02 -8.628632e-03 -3.363131e-03 3.757040e-05 5.325098e-03 -3.076711e-02 3.137287e-03 -4.051404e-02 -6.865446e-03 -3.263389e-02 8.128729e-03 -3.301265e-04 4.691375e-03 1.888009e-02 -1.232661e-02 2.705982e-03 -9.727073e-04
<VARIANCE> 39
 7.888471e+00 5.224688e+01 1.000520e+01 1.008542e+01 1.269878e+01 1.799330e+01 2.989146e+01 1.547803e+01 1.943819e+01 2.827124e+01 3.139318e+01 2.612927e+01 6.552186e-03 6.283023e-02 9.483305e-02 1.272989e-01 1.674371e-01 1.852240e-01 2.154205e-01 2.327768e-01 2.523561e-01 2.576879e-01 2.604325e-01 1.982093e-01 2.313143e-01 3.754082e-05 9.091170e-03 1.695517e-02 2.173375e-02 2.771623e-02 3.480826e-02 3.547430e-02 3.904332e-02 3.971281e-02 4.782685e-02 4.301634e-02 3.293131e-02 4.605634e-02 3.730629e-06
<GCONST> 1.633612e+01
<MIXTURE> 11 8.099250e-02
<MEAN> 39
 -1.848702e+00 1.264715e+01 -6.913199e-01 -1.693488e+00 -3.767057e+00 -4.303991e+00 -6.246209e+00 -2.044161e-01 -1.393584e+00 -2.783669e+00 2.255542e+00 -8.956265e-01 8.938054e-01 1.724224e-02 3.491630e-02 -1.136852e-02 -4.340982e-02 7.169364e-02 -4.060902e-02 7.451583e-02 -1.980714e-02 6.156477e-02 -1.470275e-02 -8.628632e-03 -3.363131e-03 3.757040e-05 5.325098e-03 -3.076711e-02 3.137287e-03 -4.051404e-02 -6.865446e-03 -3.263389e-02 8.128729e-03 -3.301265e-04 4.691375e-03 1.888009e-02 -1.232661e-02 2.705982e-03 -9.727073e-04
<VARIANCE> 39
 7.888471e+00 5.224688e+01 1.000520e+01 1.008542e+01 1.269878e+01 1.799330e+01 2.989146e+01 1.547803e+01 1.943819e+01 2.827124e+01 3.139318e+01 2.612927e+01 6.552186e-03 6.283023e-02 9.483305e-02 1.272989e-01 1.674371e-01 1.852240e-01 2.154205e-01 2.327768e-01 2.523561e-01 2.576879e-01 2.604325e-01 1.982093e-01 2.313143e-01 3.754082e-05 9.091170e-03 1.695517e-02 2.173375e-02 2.771623e-02 3.480826e-02 3.547430e-02 3.904332e-02 3.971281e-02 4.782685e-02 4.301634e-02 3.293131e-02 4.605634e-02 3.730629e-06
<GCONST> 1.633612e+01
<MIXTURE> 12 5.292833e-02
<MEAN> 39
 -1.102772e+00 1.163991e+01 -5.103694e+00 -1.641933e+00 -6.876717e+00 -8.297292e+00 -5.104702e+00 -2.745090e+00 -4.592884e+00 -2.901538e+00 -5.465431e+00 1.765538e+00 8.850880e-01 -1.189193e-01 -2.939397e-01 -4.203986e-01 -3.277451e-01 -3.462437e-01 -4.121533e-01 -3.851109e-01 -4.494020e-01 -2.816330e-01 -2.767393e-01 -2.420084e-01 -3.642611e-01 6.244979e-04 2.377933e-02 5.429068e-02 8.644205e-02 3.403751e-02 9.407473e-02 1.046622e-01 1.310057e-01 1.135872e-01 1.323255e-01 7.783406e-02 1.009298e-01 3.768117e-02 -1.354989e-03
<VARIANCE> 39
 1.063038e+01 2.828518e+01 1.196643e+01 1.495543e+01 1.962990e+01 2.275208e+01 2.325223e+01 2.885595e+01 2.195165e+01 2.622341e+01 2.855869e+01 3.851043e+01 6.742818e-03 7.091600e-02 1.338729e-01 2.011985e-01 2.900242e-01 3.072710e-01 3.464552e-01 4.252320e-01 3.797221e-01 4.403352e-01 3.296188e-01 4.073674e-01 4.681687e-01 3.754082e-05 1.426668e-02 2.825741e-02 4.118900e-02 4.842430e-02 6.391732e-02 7.622333e-02 9.265416e-02 8.865165e-02 8.582694e-02 6.408815e-02 6.827678e-02 7.974713e-02 3.730629e-06
<GCONST> 3.112639e+01
<MIXTURE> 13 8.099274e-02
<MEAN> 39
 -1.848710e+00 1.264712e+01 -6.913043e-01 -1.693475e+00 -3.767063e+00 -4.303970e+00 -6.246218e+00 -2.044144e-01 -1.393585e+00 -2.783672e+00 2.255550e+00 -8.956195e-01 8.938062e-01 1.724221e-02 3.491635e-02 -1.136822e-02 -4.340927e-02 7.169384e-02 -4.060989e-02 7.451557e-02 -1.980660e-02 6.156504e-02 -1.470194e-02 -8.628723e-03 -3.363527e-03 3.756859e-05 5.325036e-03 -3.076717e-02 3.137175e-03 -4.051404e-02 -6.865636e-03 -3.263418e-02 8.129111e-03 -3.301721e-04 4.691247e-03 1.887984e-02 -1.232662e-02 2.706027e-03 -9.727096e-04
<VARIANCE> 39
 7.888575e+00 5.224681e+01 1.000518e+01 1.008541e+01 1.269880e+01 1.799322e+01 2.989134e+01 1.547807e+01 1.943823e+01 2.827138e+01 3.139312e+01 2.612935e+01 6.552082e-03 6.283029e-02 9.483324e-02 1.272991e-01 1.674368e-01 1.852244e-01 2.154208e-01 2.327781e-01 2.523568e-01 2.576888e-01 2.604326e-01 1.982093e-01 2.313147e-01 3.754082e-05 9.091150e-03 1.695513e-02 2.173380e-02 2.771621e-02 3.480842e-02 3.547433e-02 3.904339e-02 3.971284e-02 4.782702e-02 4.301649e-02 3.293132e-02 4.605647e-02 3.730629e-06
<GCONST> 1.633613e+01
<MIXTURE> 14 5.292833e-02
<MEAN> 39
 -1.102772e+00 1.163991e+01 -5.103694e+00 -1.641933e+00 -6.876717e+00 -8.297292e+00 -5.104702e+00 -2.745090e+00 -4.592884e+00 -2.901538e+00 -5.465431e+00 1.765538e+00 8.850880e-01 -1.189193e-01 -2.939397e-01 -4.203986e-01 -3.277451e-01 -3.462437e-01 -4.121533e-01 -3.851109e-01 -4.494020e-01 -2.816330e-01 -2.767393e-01 -2.420084e-01 -3.642611e-01 6.244979e-04 2.377933e-02 5.429068e-02 8.644205e-02 3.403751e-02 9.407473e-02 1.046622e-01 1.310057e-01 1.135872e-01 1.323255e-01 7.783406e-02 1.009298e-01 3.768117e-02 -1.354989e-03
<VARIANCE> 39
 1.063038e+01 2.828518e+01 1.196643e+01 1.495543e+01 1.962990e+01 2.275208e+01 2.325223e+01 2.885595e+01 2.195165e+01 2.622341e+01 2.855869e+01 3.851043e+01 6.742818e-03 7.091600e-02 1.338729e-01 2.011985e-01 2.900242e-01 3.072710e-01 3.464552e-01 4.252320e-01 3.797221e-01 4.403352e-01 3.296188e-01 4.073674e-01 4.681687e-01 3.754082e-05 1.426668e-02 2.825741e-02 4.118900e-02 4.842430e-02 6.391732e-02 7.622333e-02 9.265416e-02 8.865165e-02 8.582694e-02 6.408815e-02 6.827678e-02 7.974713e-02 3.730629e-06
<GCONST> 3.112639e+01
<MIXTURE> 15 5.292733e-02
<MEAN> 39
 -1.102851e+00 1.163977e+01 -5.103632e+00 -1.642006e+00 -6.876743e+00 -8.297276e+00 -5.104810e+00 -2.745127e+00 -4.592868e+00 -2.901578e+00 -5.465334e+00 1.765440e+00 8.850897e-01 -1.189207e-01 -2.939398e-01 -4.203991e-01 -3.277449e-01 -3.462381e-01 -4.121522e-01 -3.851105e-01 -4.494038e-01 -2.816387e-01 -2.767428e-01 -2.420065e-01 -3.642613e-01 6.245443e-04 2.378347e-02 5.429820e-02 8.644942e-02 3.404627e-02 9.408381e-02 1.046729e-01 1.310184e-01 1.135984e-01 1.323359e-01 7.784248e-02 1.009349e-01 3.768978e-02 -1.354993e-03
<VARIANCE> 39
 1.063040e+01 2.828594e+01 1.196670e+01 1.495520e+01 1.963013e+01 2.275241e+01 2.325260e+01 2.885581e+01 2.195126e+01 2.622388e+01 2.855936e+01 3.851115e+01 6.742767e-03 7.091649e-02 1.338736e-01 2.011989e-01 2.900251e-01 3.072703e-01 3.464528e-01 4.252338e-01 3.797225e-01 4.403323e-01 3.296210e-01 4.073690e-01 4.681739e-01 3.754082e-05 1.426667e-02 2.825832e-02 4.118942e-02 4.842515e-02 6.391777e-02 7.622434e-02 9.265525e-02 8.865298e-02 8.582857e-02 6.408948e-02 6.827728e-02 7.974770e-02 3.730629e-06
<GCONST> 3.112666e+01
<STATE> 6
<NUMMIXES> 15
<MIXTURE> 1 2.256713e-02
<MEAN> 39
 -4.041769e+00 9.632939e+00 -3.852638e+00 -3.720293e+00 -7.288996e+00 -5.169580e+00 5.542035e+00 4.720996e+00 1.742212e+01 1.631118e+01 9.570347e+00 6.272599e+00 9.479346e-01 3.427113e-01 4.100043e-01 4.985904e-01 4.445595e-01 4.461211e-01 2.480404e-01 3.219146e-01 4.532281e-01 3.429241e-02 -4.441372e-02 1.378437e-01 -9.036289e-01 1.927273e-03 -8.715653e-02 -3.179744e-02 -4.512608e-02 -1.583961e-01 8.914059e-02 -6.702427e-02 -2.177061e-03 -1.741060e-02 -1.348405e-01 5.294919e-02 5.451931e-02 1.056355e-01 -1.324188e-03
<VARIANCE> 39
 9.726992e+00 2.920242e+01 1.322561e+01 2.060307e+01 1.105788e+01 1.060373e+01 1.218381e+01 2.642137e+01 3.455808e+01 1.881033e+01 1.783727e+01 7.694026e+01 1.183826e-02 6.487339e-01 3.824702e-01 5.074292e-01 6.792778e-01 5.036792e-01 6.545905e-01 3.911000e-01 8.217704e-01 8.365723e-01 5.298595e-01 1.822070e-01 1.312584e+00 4.027834e-05 9.359775e-02 1.174448e-01 1.399284e-01 1.220541e-01 8.287025e-02 8.650385e-02 7.884582e-02 1.239769e-01 4.172816e-02 1.352033e-01 5.273687e-02 1.808496e-01 1.202807e-05
<GCONST> 4.636525e+01
<MIXTURE> 2 4.695354e-02
<MEAN> 39
 -1.046528e+00 5.766188e+00 -4.671428e+00 -2.362347e+00 -6.443810e+00 -5.838117e+00 -3.460549e+00 -3.495817e+00 -4.004735e+00 -4.297519e+00 -5.113109e+00 -5.506396e-01 9.257888e-01 2.582655e-01 3.096676e-01 3.559158e-01 4.239644e-01 4.502789e-01 4.071077e-01 4.829001e-01 5.227073e-01 4.462320e-01 3.326317e-01 2.925372e-01 1.892345e-01 -2.913723e-03 1.212411e-01 1.863090e-01 2.770415e-01 2.346912e-01 3.408997e-01 2.757801e-01 3.003318e-01 2.978774e-01 3.066531e-01 3.226415e-01 2.344601e-01 1.618853e-01 -8.036174e-04
<VARIANCE> 39
 1.153834e+01 4.219827e+01 1.114048e+01 1.232466e+01 2.336620e+01 2.031076e+01 1.277044e+01 1.650953e+01 1.819195e+01 2.104949e+01 2.475380e+01 2.523808e+01 3.411158e-03 1.431350e-01 2.480215e-01 4.602048e-01 4.848760e-01 7.695470e-01 6.346831e-01 7.539370e-01 8.168634e-01 6.656374e-01 6.613900e-01 6.679735e-01 6.281168e-01 3.754082e-05 2.256367e-02 5.506904e-02 7.943821e-02 8.697674e-02 1.255814e-01 1.022395e-01 1.244454e-01 1.482989e-01 1.309500e-01 1.216786e-01 1.409427e-01 1.325565e-01 3.730629e-06
<GCONST> 4.245544e+01
<MIXTURE> 3 4.694906e-02
<MEAN> 39
 -1.046300e+00 5.766089e+00 -4.671113e+00 -2.362056e+00 -6.443354e+00 -5.837689e+00 -3.460164e+00 -3.495469e+00 -4.004348e+00 -4.297298e+00 -5.112833e+00 -5.504853e-01 9.257903e-01 2.583154e-01 3.097444e-01 3.560213e-01 4.240869e-01 4.504084e-01 4.072363e-01 4.830247e-01 5.228137e-01 4.463466e-01 3.327430e-01 2.926302e-01 1.893245e-01 -2.913877e-03 1.212215e-01 1.862724e-01 2.769902e-01 2.346421e-01 3.408449e-01 2.757320e-01 3.002740e-01 2.978078e-01 3.066013e-01 3.226023e-01 2.344343e-01 1.618476e-01 -8.035983e-04
<VARIANCE> 39
 1.153770e+01 4.219689e+01 1.114130e+01 1.232430e+01 2.336710e+01 2.031052e+01 1.277042e+01 1.650951e+01 1.819169e+01 2.104973e+01 2.475429e+01 2.523733e+01 3.411035e-03 1.431507e-01 2.480455e-01 4.602465e-01 4.849112e-01 7.695928e-01 6.346930e-01 7.540056e-01 8.169231e-01 6.656686e-01 6.613993e-01 6.679565e-01 6.281602e-01 3.754082e-05 2.256439e-02 5.506647e-02 7.943956e-02 8.697320e-02 1.255825e-01 1.022418e-01 1.244503e-01 1.483026e-01 1.309455e-01 1.216841e-01 1.409415e-01 1.325552e-01 3.730629e-06
<GCONST> 4.245613e+01
<MIXTURE> 4 9.192140e-02
<MEAN> 39
 3.197658e-01 1.208639e+01 -1.858201e+00 -1.355172e-01 -4.073356e+00 -3.992301e+00 -4.175426e+00 -5.312852e-01 -9.854875e-01 -1.463564e+00 7.258068e-02 9.230843e-02 8.924484e-01 1.506620e-01 5.402043e-02 1.507976e-01 1.551693e-01 2.134991e-01 4.689182e-02 2.059297e-01 5.675175e-02 3.408304e-01 3.169622e-01 1.734198e-01 3.904856e-02 -1.813413e-03 -4.901429e-02 -1.134837e-01 -8.252287e-02 -1.534709e-01 -5.107324e-02 -1.293646e-01 -7.752046e-02 -9.857143e-02 -6.491686e-02 -6.576531e-02 -5.418441e-02 -6.776603e-02 -1.239871e-03
<VARIANCE> 39
 1.171980e+01 4.636196e+01 1.771785e+01 1.807463e+01 2.178811e+01 2.302804e+01 3.566628e+01 2.210148e+01 2.133323e+01 3.216388e+01 4.283860e+01 3.895159e+01 5.100477e-03 1.915890e-01 3.527658e-01 4.690980e-01 6.112227e-01 7.260889e-01 8.860749e-01 8.675113e-01 9.278728e-01 8.223873e-01 8.945940e-01 8.622705e-01 8.009694e-01 4.961252e-05 3.554014e-02 5.651474e-02 8.922320e-02 1.075689e-01 1.413523e-01 1.494574e-01 1.768663e-01 1.695583e-01 1.571493e-01 1.776637e-01 1.616697e-01 1.575781e-01 5.142645e-06
<GCONST> 5.246737e+01
<MIXTURE> 5 4.694906e-02
<MEAN> 39
 -1.046300e+00 5.766089e+00 -4.671113e+00 -2.362056e+00 -6.443354e+00 -5.837689e+00 -3.460164e+00 -3.495469e+00 -4.004348e+00 -4.297298e+00 -5.112833e+00 -5.504853e-01 9.257903e-01 2.583154e-01 3.097444e-01 3.560213e-01 4.240869e-01 4.504084e-01 4.072363e-01 4.830247e-01 5.228137e-01 4.463466e-01 3.327430e-01 2.926302e-01 1.893245e-01 -2.913877e-03 1.212215e-01 1.862724e-01 2.769902e-01 2.346421e-01 3.408449e-01 2.757320e-01 3.002740e-01 2.978078e-01 3.066013e-01 3.226023e-01 2.344343e-01 1.618476e-01 -8.035983e-04
<VARIANCE> 39
 1.153770e+01 4.219689e+01 1.114130e+01 1.232430e+01 2.336710e+01 2.031052e+01 1.277042e+01 1.650951e+01 1.819169e+01 2.104973e+01 2.475429e+01 2.523733e+01 3.411035e-03 1.431507e-01 2.480455e-01 4.602465e-01 4.849112e-01 7.695928e-01 6.346930e-01 7.540056e-01 8.169231e-01 6.656686e-01 6.613993e-01 6.679565e-01 6.281602e-01 3.754082e-05 2.256439e-02 5.506647e-02 7.943956e-02 8.697320e-02 1.255825e-01 1.022418e-01 1.244503e-01 1.483026e-01 1.309455e-01 1.216841e-01 1.409415e-01 1.325552e-01 3.730629e-06
<GCONST> 4.245613e+01
<MIXTURE> 6 9.192223e-02
<MEAN> 39
 3.198430e-01 1.208623e+01 -1.858201e+00 -1.352306e-01 -4.073184e+00 -3.992025e+00 -4.175394e+00 -5.312203e-01 -9.855543e-01 -1.463536e+00 7.241759e-02 9.232794e-02 8.924493e-01 1.506767e-01 5.401986e-02 1.507868e-01 1.551722e-01 2.135008e-01 4.688317e-02 2.059185e-01 5.674694e-02 3.408325e-01 3.169623e-01 1.734124e-01 3.904096e-02 -1.814184e-03 -4.901729e-02 -1.134743e-01 -8.252371e-02 -1.534673e-01 -5.108808e-02 -1.293766e-01 -7.750972e-02 -9.856331e-02 -6.491381e-02 -6.576496e-02 -5.417787e-02 -6.777270e-02 -1.239547e-03
<VARIANCE> 39
 1.171970e+01 4.636318e+01 1.771674e+01 1.807178e+01 2.178735e+01 2.302592e+01 3.566559e+01 2.210068e+01 2.133249e+01 3.216232e+01 4.283628e+01 3.894712e+01 5.100430e-03 1.915758e-01 3.527343e-01 4.690715e-01 6.111781e-01 7.260467e-01 8.860120e-01 8.674520e-01 9.277838e-01 8.222895e-01 8.944722e-01 8.621117e-01 8.009023e-01 4.959291e-05 3.553668e-02 5.651178e-02 8.921716e-02 1.075595e-01 1.413333e-01 1.494454e-01 1.768519e-01 1.695445e-01 1.571417e-01 1.776433e-01 1.616575e-01 1.575474e-01 5.138683e-06
<GCONST> 5.246331e+01
<MIXTURE> 7 9.192003e-02
<MEAN> 39
 3.196607e-01 1.208671e+01 -1.858218e+00 -1.357527e-01 -4.073522e+00 -3.992559e+00 -4.175689e+00 -5.313553e-01 -9.854418e-01 -1.463640e+00 7.282919e-02 9.226363e-02 8.924469e-01 1.506407e-01 5.400543e-02 1.507902e-01 1.551471e-01 2.134820e-01 4.687272e-02 2.059143e-01 5.674155e-02 3.408126e-01 3.169352e-01 1.733963e-01 3.903311e-02 -1.812988e-03 -4.900746e-02 -1.134869e-01 -8.251293e-02 -1.534664e-01 -5.105563e-02 -1.293499e-01 -7.751255e-02 -9.856537e-02 -6.490957e-02 -6.575775e-02 -5.418450e-02 -6.775691e-02 -1.240079e-03
<VARIANCE> 39
 1.172003e+01 4.636087e+01 1.771870e+01 1.807688e+01 2.178865e+01 2.302949e+01 3.566718e+01 2.210210e+01 2.133413e+01 3.216544e+01 4.284052e+01 3.895585e+01 5.100483e-03 1.915910e-01 3.527651e-01 4.690952e-01 6.112347e-01 7.260911e-01 8.860751e-01 8.675132e-01 9.278880e-01 8.224208e-01 8.946434e-01 8.623347e-01 8.009882e-01 4.962114e-05 3.554219e-02 5.651516e-02 8.922479e-02 1.075746e-01 1.413620e-01 1.494631e-01 1.768714e-01 1.695613e-01 1.571507e-01 1.776724e-01 1.616741e-01 1.575950e-01 5.145014e-06
<GCONST> 5.246927e+01
<MIXTURE> 8 9.107756e-02
<MEAN> 39
 8.278974e-01 1.053269e+01 -2.122728e+00 1.859100e+00 -3.682297e+00 -2.993116e+00 -3.916347e-02 -4.015580e-01 -1.178588e+00 2.244825e-01 -2.758140e+00 2.783095e+00 9.170149e-01 -1.799647e-01 -3.206148e-01 -3.887688e-01 -5.866242e-01 -3.960646e-01 -5.049271e-01 -2.334591e-01 -4.839174e-01 -3.470708e-01 -2.724235e-01 -1.299829e-01 -3.470115e-01 4.817284e-04 -2.140548e-01 -2.965493e-01 -3.962483e-01 -4.857098e-01 -3.932234e-01 -4.939989e-01 -4.005920e-01 -4.507143e-01 -3.495031e-01 -3.994232e-01 -3.410993e-01 -3.576011e-01 -8.641140e-04
<VARIANCE> 39
 1.117536e+01 5.065683e+01 1.157711e+01 9.379268e+00 2.017933e+01 2.771402e+01 9.545515e+00 1.348217e+01 1.324240e+01 1.721056e+01 2.557651e+01 2.419465e+01 4.363348e-03 1.564364e-01 3.047713e-01 3.383738e-01 4.040060e-01 4.965920e-01 7.540943e-01 7.291311e-01 7.135285e-01 6.359649e-01 8.972995e-01 1.321200e+00 9.066216e-01 3.754082e-05 2.387039e-02 5.198291e-02 7.385575e-02 6.322251e-02 7.112174e-02 9.057644e-02 9.680934e-02 1.393203e-01 1.024093e-01 1.226551e-01 1.246565e-01 1.524735e-01 3.791884e-06
<GCONST> 4.083800e+01
<MIXTURE> 9 4.693937e-02
<MEAN> 39
 -1.045587e+00 5.764462e+00 -4.669693e+00 -2.360928e+00 -6.440812e+00 -5.835436e+00 -3.458730e+00 -3.494365e+00 -4.002614e+00 -4.295979e+00 -5.111082e+00 -5.500090e-01 9.258046e-01 2.585009e-01 3.100185e-01 3.564022e-01 4.245112e-01 4.508733e-01 4.076791e-01 4.834369e-01 5.231676e-01 4.467168e-01 3.331377e-01 2.929636e-01 1.896526e-01 -2.914620e-03 1.211491e-01 1.861561e-01 2.768171e-01 2.344680e-01 3.406292e-01 2.755512e-01 3.000678e-01 2.975681e-01 3.063999e-01 3.224397e-01 2.343143e-01 1.617145e-01 -8.035497e-04
<VARIANCE> 39
 1.153398e+01 4.219042e+01 1.114344e+01 1.232171e+01 2.336850e+01 2.030744e+01 1.276902e+01 1.650721e+01 1.818883e+01 2.104609e+01 2.475414e+01 2.523236e+01 3.410276e-03 1.432001e-01 2.481352e-01 4.603937e-01 4.850075e-01 7.697358e-01 6.346909e-01 7.542512e-01 8.171170e-01 6.657562e-01 6.613888e-01 6.678960e-01 6.282666e-01 3.754082e-05 2.256587e-02 5.506136e-02 7.944720e-02 8.695889e-02 1.255912e-01 1.022454e-01 1.244675e-01 1.483112e-01 1.309229e-01 1.216849e-01 1.409181e-01 1.325416e-01 3.730629e-06
<GCONST> 4.245645e+01
<MIXTURE> 10 9.192003e-02
<MEAN> 39
 3.196607e-01 1.208671e+01 -1.858218e+00 -1.357527e-01 -4.073522e+00 -3.992559e+00 -4.175689e+00 -5.313553e-01 -9.854418e-01 -1.463640e+00 7.282919e-02 9.226363e-02 8.924469e-01 1.506407e-01 5.400543e-02 1.507902e-01 1.551471e-01 2.134820e-01 4.687272e-02 2.059143e-01 5.674155e-02 3.408126e-01 3.169352e-01 1.733963e-01 3.903311e-02 -1.812988e-03 -4.900746e-02 -1.134869e-01 -8.251293e-02 -1.534664e-01 -5.105563e-02 -1.293499e-01 -7.751255e-02 -9.856537e-02 -6.490957e-02 -6.575775e-02 -5.418450e-02 -6.775691e-02 -1.240079e-03
<VARIANCE> 39
 1.172003e+01 4.636087e+01 1.771870e+01 1.807688e+01 2.178865e+01 2.302949e+01 3.566718e+01 2.210210e+01 2.133413e+01 3.216544e+01 4.284052e+01 3.895585e+01 5.100483e-03 1.915910e-01 3.527651e-01 4.690952e-01 6.112347e-01 7.260911e-01 8.860751e-01 8.675132e-01 9.278880e-01 8.224208e-01 8.946434e-01 8.623347e-01 8.009882e-01 4.962114e-05 3.554219e-02 5.651516e-02 8.922479e-02 1.075746e-01 1.413620e-01 1.494631e-01 1.768714e-01 1.695613e-01 1.571507e-01 1.776724e-01 1.616741e-01 1.575950e-01 5.145014e-06
<GCONST> 5.246927e+01
<MIXTURE> 11 9.192209e-02
<MEAN> 39
 3.196698e-01 1.208673e+01 -1.858237e+00 -1.357089e-01 -4.073521e+00 -3.992525e+00 -4.175711e+00 -5.313570e-01 -9.854331e-01 -1.463643e+00 7.283747e-02 9.228747e-02 8.924468e-01 1.506415e-01 5.400460e-02 1.507872e-01 1.551448e-01 2.134807e-01 4.686861e-02 2.059130e-01 5.674059e-02 3.408107e-01 3.169344e-01 1.733932e-01 3.903189e-02 -1.813090e-03 -4.900802e-02 -1.134853e-01 -8.251249e-02 -1.534661e-01 -5.105679e-02 -1.293522e-01 -7.750905e-02 -9.856337e-02 -6.490867e-02 -6.575710e-02 -5.418398e-02 -6.775753e-02 -1.240026e-03
<VARIANCE> 39
 1.172007e+01 4.636086e+01 1.771865e+01 1.807646e+01 2.178853e+01 2.302913e+01 3.566718e+01 2.210201e+01 2.133411e+01 3.216532e+01 4.284040e+01 3.895575e+01 5.100495e-03 1.915887e-01 3.527593e-01 4.690885e-01 6.112248e-01 7.260853e-01 8.860636e-01 8.674971e-01 9.278715e-01 8.224014e-01 8.946183e-01 8.623089e-01 8.009762e-01 4.961788e-05 3.554172e-02 5.651464e-02 8.922331e-02 1.075731e-01 1.413587e-01 1.494610e-01 1.768690e-01 1.695584e-01 1.571492e-01 1.776683e-01 1.616720e-01 1.575902e-01 5.144358e-06
<GCONST> 5.246861e+01
<MIXTURE> 12 4.901107e-02
<MEAN> 39
 -7.270129e-01 5.397272e+00 -3.251901e+00 -1.137031e+00 -3.944153e+00 -4.021413e+00 -2.280138e+00 -2.334318e+00 -2.330528e+00 -1.830975e+00 -3.342906e+00 5.959054e-01 9.367203e-01 -2.222438e-01 -5.597662e-01 -7.216631e-01 -7.122980e-01 -8.387364e-01 -8.090963e-01 -6.982267e-01 -7.235245e-01 -6.596795e-01 -7.266908e-01 -5.356401e-01 -5.879629e-01 -2.218432e-03 4.125888e-02 9.667717e-02 1.095817e-01 6.164451e-02 9.535009e-02 9.626531e-02 1.106860e-01 1.884294e-01 7.444549e-02 4.950942e-02 8.880139e-02 5.049852e-02 -1.031548e-03
<VARIANCE> 39
 1.099526e+01 4.003109e+01 9.430347e+00 1.001104e+01 1.897524e+01 2.119482e+01 1.333383e+01 1.526581e+01 1.580287e+01 1.708845e+01 2.347271e+01 2.156585e+01 3.273820e-03 1.634603e-01 2.550603e-01 3.066428e-01 4.306583e-01 6.022976e-01 5.402277e-01 6.068947e-01 7.343109e-01 6.820445e-01 6.324462e-01 1.088156e+00 5.654437e-01 3.754082e-05 1.876415e-02 5.223650e-02 8.235164e-02 8.404118e-02 1.229999e-01 1.114539e-01 1.321463e-01 1.556628e-01 1.255952e-01 1.317948e-01 1.521419e-01 8.913270e-02 3.730629e-06
<GCONST> 4.010371e+01
<MIXTURE> 13 9.192243e-02
<MEAN> 39
 3.196123e-01 1.208682e+01 -1.858270e+00 -1.360665e-01 -4.073740e+00 -3.992882e+00 -4.175603e+00 -5.314580e-01 -9.853617e-01 -1.463640e+00 7.293296e-02 9.231793e-02 8.924464e-01 1.506258e-01 5.401536e-02 1.508071e-01 1.551547e-01 2.134864e-01 4.689402e-02 2.059356e-01 5.674729e-02 3.408191e-01 3.169444e-01 1.734185e-01 3.904869e-02 -1.812043e-03 -4.900610e-02 -1.134984e-01 -8.251603e-02 -1.534736e-01 -5.104059e-02 -1.293376e-01 -7.753226e-02 -9.857854e-02 -6.491747e-02 -6.576324e-02 -5.419179e-02 -6.775269e-02 -1.240463e-03
<VARIANCE> 39
 1.172016e+01 4.635932e+01 1.772030e+01 1.808027e+01 2.178984e+01 2.303206e+01 3.566792e+01 2.210315e+01 2.133508e+01 3.216752e+01 4.284354e+01 3.896141e+01 5.100578e-03 1.916105e-01 3.528155e-01 4.691415e-01 6.113045e-01 7.261625e-01 8.861824e-01 8.676134e-01 9.280249e-01 8.225613e-01 8.948265e-01 8.625485e-01 8.010926e-01 4.964435e-05 3.554669e-02 5.651977e-02 8.923378e-02 1.075882e-01 1.413884e-01 1.494813e-01 1.768952e-01 1.695818e-01 1.571642e-01 1.777017e-01 1.616920e-01 1.576351e-01 5.149712e-06
<GCONST> 5.247477e+01
<MIXTURE> 14 4.901107e-02
<MEAN> 39
 -7.270129e-01 5.397272e+00 -3.251901e+00 -1.137031e+00 -3.944153e+00 -4.021413e+00 -2.280138e+00 -2.334318e+00 -2.330528e+00 -1.830975e+00 -3.342906e+00 5.959054e-01 9.367203e-01 -2.222438e-01 -5.597662e-01 -7.216631e-01 -7.122980e-01 -8.387364e-01 -8.090963e-01 -6.982267e-01 -7.235245e-01 -6.596795e-01 -7.266908e-01 -5.356401e-01 -5.879629e-01 -2.218432e-03 4.125888e-02 9.667717e-02 1.095817e-01 6.164451e-02 9.535009e-02 9.626531e-02 1.106860e-01 1.884294e-01 7.444549e-02 4.950942e-02 8.880139e-02 5.049852e-02 -1.031548e-03
<VARIANCE> 39
 1.099526e+01 4.003109e+01 9.430347e+00 1.001104e+01 1.897524e+01 2.119482e+01 1.333383e+01 1.526581e+01 1.580287e+01 1.708845e+01 2.347271e+01 2.156585e+01 3.273820e-03 1.634603e-01 2.550603e-01 3.066428e-01 4.306583e-01 6.022976e-01 5.402277e-01 6.068947e-01 7.343109e-01 6.820445e-01 6.324462e-01 1.088156e+00 5.654437e-01 3.754082e-05 1.876415e-02 5.223650e-02 8.235164e-02 8.404118e-02 1.229999e-01 1.114539e-01 1.321463e-01 1.556628e-01 1.255952e-01 1.317948e-01 1.521419e-01 8.913270e-02 3.730629e-06
<GCONST> 4.010371e+01
<MIXTURE> 15 4.901107e-02
<MEAN> 39
 -7.270129e-01 5.397272e+00 -3.251901e+00 -1.137031e+00 -3.944153e+00 -4.021413e+00 -2.280138e+00 -2.334318e+00 -2.330528e+00 -1.830975e+00 -3.342906e+00 5.959054e-01 9.367203e-01 -2.222438e-01 -5.597662e-01 -7.216631e-01 -7.122980e-01 -8.387364e-01 -8.090963e-01 -6.982267e-01 -7.235245e-01 -6.596795e-01 -7.266908e-01 -5.356401e-01 -5.879629e-01 -2.218432e-03 4.125888e-02 9.667717e-02 1.095817e-01 6.164451e-02 9.535009e-02 9.626531e-02 1.106860e-01 1.884294e-01 7.444549e-02 4.950942e-02 8.880139e-02 5.049852e-02 -1.031548e-03
<VARIANCE> 39
 1.099526e+01 4.003109e+01 9.430347e+00 1.001104e+01 1.897524e+01 2.119482e+01 1.333383e+01 1.526581e+01 1.580287e+01 1.708845e+01 2.347271e+01 2.156585e+01 3.273820e-03 1.634603e-01 2.550603e-01 3.066428e-01 4.306583e-01 6.022976e-01 5.402277e-01 6.068947e-01 7.343109e-01 6.820445e-01 6.324462e-01 1.088156e+00 5.654437e-01 3.754082e-05 1.876415e-02 5.223650e-02 8.235164e-02 8.404118e-02 1.229999e-01 1.114539e-01 1.321463e-01 1.556628e-01 1.255952e-01 1.317948e-01 1.521419e-01 8.913270e-02 3.730629e-06
<GCONST> 4.010371e+01
<STATE> 7
